{"learner":{"attributes":{"scikit_learn":"{\"_estimator_type\": \"classifier\"}"},"feature_names":[],"feature_types":[],"gradient_booster":{"model":{"gbtree_model_param":{"num_parallel_tree":"1","num_trees":"1000"},"iteration_indptr":[0,1,2,3,4,5,6,7,8,9,10,11,12,13,14,15,16,17,18,19,20,21,22,23,24,25,26,27,28,29,30,31,32,33,34,35,36,37,38,39,40,41,42,43,44,45,46,47,48,49,50,51,52,53,54,55,56,57,58,59,60,61,62,63,64,65,66,67,68,69,70,71,72,73,74,75,76,77,78,79,80,81,82,83,84,85,86,87,88,89,90,91,92,93,94,95,96,97,98,99,100,101,102,103,104,105,106,107,108,109,110,111,112,113,114,115,116,117,118,119,120,121,122,123,124,125,126,127,128,129,130,131,132,133,134,135,136,137,138,139,140,141,142,143,144,145,146,147,148,149,150,151,152,153,154,155,156,157,158,159,160,161,162,163,164,165,166,167,168,169,170,171,172,173,174,175,176,177,178,179,180,181,182,183,184,185,186,187,188,189,190,191,192,193,194,195,196,197,198,199,200,201,202,203,204,205,206,207,208,209,210,211,212,213,214,215,216,217,218,219,220,221,222,223,224,225,226,227,228,229,230,231,232,233,234,235,236,237,238,239,240,241,242,243,244,245,246,247,248,249,250,251,252,253,254,255,256,257,258,259,260,261,262,263,264,265,266,267,268,269,270,271,272,273,274,275,276,277,278,279,280,281,282,283,284,285,286,287,288,289,290,291,292,293,294,295,296,297,298,299,300,301,302,303,304,305,306,307,308,309,310,311,312,313,314,315,316,317,318,319,320,321,322,323,324,325,326,327,328,329,330,331,332,333,334,335,336,337,338,339,340,341,342,343,344,345,346,347,348,349,350,351,352,353,354,355,356,357,358,359,360,361,362,363,364,365,366,367,368,369,370,371,372,373,374,375,376,377,378,379,380,381,382,383,384,385,386,387,388,389,390,391,392,393,394,395,396,397,398,399,400,401,402,403,404,405,406,407,408,409,410,411,412,413,414,415,416,417,418,419,420,421,422,423,424,425,426,427,428,429,430,431,432,433,434,435,436,437,438,439,440,441,442,443,444,445,446,447,448,449,450,451,452,453,454,455,456,457,458,459,460,461,462,463,464,465,466,467,468,469,470,471,472,473,474,475,476,477,478,479,480,481,482,483,484,485,486,487,488,489,490,491,492,493,494,495,496,497,498,499,500,501,502,503,504,505,506,507,508,509,510,511,512,513,514,515,516,517,518,519,520,521,522,523,524,525,526,527,528,529,530,531,532,533,534,535,536,537,538,539,540,541,542,543,544,545,546,547,548,549,550,551,552,553,554,555,556,557,558,559,560,561,562,563,564,565,566,567,568,569,570,571,572,573,574,575,576,577,578,579,580,581,582,583,584,585,586,587,588,589,590,591,592,593,594,595,596,597,598,599,600,601,602,603,604,605,606,607,608,609,610,611,612,613,614,615,616,617,618,619,620,621,622,623,624,625,626,627,628,629,630,631,632,633,634,635,636,637,638,639,640,641,642,643,644,645,646,647,648,649,650,651,652,653,654,655,656,657,658,659,660,661,662,663,664,665,666,667,668,669,670,671,672,673,674,675,676,677,678,679,680,681,682,683,684,685,686,687,688,689,690,691,692,693,694,695,696,697,698,699,700,701,702,703,704,705,706,707,708,709,710,711,712,713,714,715,716,717,718,719,720,721,722,723,724,725,726,727,728,729,730,731,732,733,734,735,736,737,738,739,740,741,742,743,744,745,746,747,748,749,750,751,752,753,754,755,756,757,758,759,760,761,762,763,764,765,766,767,768,769,770,771,772,773,774,775,776,777,778,779,780,781,782,783,784,785,786,787,788,789,790,791,792,793,794,795,796,797,798,799,800,801,802,803,804,805,806,807,808,809,810,811,812,813,814,815,816,817,818,819,820,821,822,823,824,825,826,827,828,829,830,831,832,833,834,835,836,837,838,839,840,841,842,843,844,845,846,847,848,849,850,851,852,853,854,855,856,857,858,859,860,861,862,863,864,865,866,867,868,869,870,871,872,873,874,875,876,877,878,879,880,881,882,883,884,885,886,887,888,889,890,891,892,893,894,895,896,897,898,899,900,901,902,903,904,905,906,907,908,909,910,911,912,913,914,915,916,917,918,919,920,921,922,923,924,925,926,927,928,929,930,931,932,933,934,935,936,937,938,939,940,941,942,943,944,945,946,947,948,949,950,951,952,953,954,955,956,957,958,959,960,961,962,963,964,965,966,967,968,969,970,971,972,973,974,975,976,977,978,979,980,981,982,983,984,985,986,987,988,989,990,991,992,993,994,995,996,997,998,999,1000],"tree_info":[0,0,0,0,0,0,0,0,0,0,0,0,0,0,0,0,0,0,0,0,0,0,0,0,0,0,0,0,0,0,0,0,0,0,0,0,0,0,0,0,0,0,0,0,0,0,0,0,0,0,0,0,0,0,0,0,0,0,0,0,0,0,0,0,0,0,0,0,0,0,0,0,0,0,0,0,0,0,0,0,0,0,0,0,0,0,0,0,0,0,0,0,0,0,0,0,0,0,0,0,0,0,0,0,0,0,0,0,0,0,0,0,0,0,0,0,0,0,0,0,0,0,0,0,0,0,0,0,0,0,0,0,0,0,0,0,0,0,0,0,0,0,0,0,0,0,0,0,0,0,0,0,0,0,0,0,0,0,0,0,0,0,0,0,0,0,0,0,0,0,0,0,0,0,0,0,0,0,0,0,0,0,0,0,0,0,0,0,0,0,0,0,0,0,0,0,0,0,0,0,0,0,0,0,0,0,0,0,0,0,0,0,0,0,0,0,0,0,0,0,0,0,0,0,0,0,0,0,0,0,0,0,0,0,0,0,0,0,0,0,0,0,0,0,0,0,0,0,0,0,0,0,0,0,0,0,0,0,0,0,0,0,0,0,0,0,0,0,0,0,0,0,0,0,0,0,0,0,0,0,0,0,0,0,0,0,0,0,0,0,0,0,0,0,0,0,0,0,0,0,0,0,0,0,0,0,0,0,0,0,0,0,0,0,0,0,0,0,0,0,0,0,0,0,0,0,0,0,0,0,0,0,0,0,0,0,0,0,0,0,0,0,0,0,0,0,0,0,0,0,0,0,0,0,0,0,0,0,0,0,0,0,0,0,0,0,0,0,0,0,0,0,0,0,0,0,0,0,0,0,0,0,0,0,0,0,0,0,0,0,0,0,0,0,0,0,0,0,0,0,0,0,0,0,0,0,0,0,0,0,0,0,0,0,0,0,0,0,0,0,0,0,0,0,0,0,0,0,0,0,0,0,0,0,0,0,0,0,0,0,0,0,0,0,0,0,0,0,0,0,0,0,0,0,0,0,0,0,0,0,0,0,0,0,0,0,0,0,0,0,0,0,0,0,0,0,0,0,0,0,0,0,0,0,0,0,0,0,0,0,0,0,0,0,0,0,0,0,0,0,0,0,0,0,0,0,0,0,0,0,0,0,0,0,0,0,0,0,0,0,0,0,0,0,0,0,0,0,0,0,0,0,0,0,0,0,0,0,0,0,0,0,0,0,0,0,0,0,0,0,0,0,0,0,0,0,0,0,0,0,0,0,0,0,0,0,0,0,0,0,0,0,0,0,0,0,0,0,0,0,0,0,0,0,0,0,0,0,0,0,0,0,0,0,0,0,0,0,0,0,0,0,0,0,0,0,0,0,0,0,0,0,0,0,0,0,0,0,0,0,0,0,0,0,0,0,0,0,0,0,0,0,0,0,0,0,0,0,0,0,0,0,0,0,0,0,0,0,0,0,0,0,0,0,0,0,0,0,0,0,0,0,0,0,0,0,0,0,0,0,0,0,0,0,0,0,0,0,0,0,0,0,0,0,0,0,0,0,0,0,0,0,0,0,0,0,0,0,0,0,0,0,0,0,0,0,0,0,0,0,0,0,0,0,0,0,0,0,0,0,0,0,0,0,0,0,0,0,0,0,0,0,0,0,0,0,0,0,0,0,0,0,0,0,0,0,0,0,0,0,0,0,0,0,0,0,0,0,0,0,0,0,0,0,0,0,0,0,0,0,0,0,0,0,0,0,0,0,0,0,0,0,0,0,0,0,0,0,0,0,0,0,0,0,0,0,0,0,0,0,0,0,0,0,0,0,0,0,0,0,0,0,0,0,0,0,0,0,0,0,0,0,0,0,0,0,0,0,0,0,0,0,0,0,0,0,0,0,0,0,0,0,0,0,0,0,0,0,0,0,0,0,0,0,0,0,0,0,0,0,0,0,0,0,0,0,0,0,0,0,0,0,0,0,0,0,0,0,0,0,0,0,0,0,0,0,0,0,0,0,0,0,0,0,0,0,0,0,0,0,0,0,0,0,0,0,0,0,0,0,0,0,0,0,0,0,0,0,0,0,0,0,0,0,0,0,0,0,0,0,0,0,0,0,0,0,0,0,0,0,0,0,0,0,0,0,0,0,0,0,0,0,0,0,0,0,0,0,0,0,0,0,0,0,0,0,0,0,0,0,0,0,0,0,0,0,0,0,0,0,0,0,0,0,0,0,0,0,0,0,0,0,0,0,0,0,0,0,0,0],"trees":[{"base_weights":[5.813554E-5,-7.106003E-1,3.5157672E-1,8.510289E-1,-8.5256976E-1,1.1282628E0,1.591396E-1,1.2572752E-1,2.3078865E-1,-6.780755E-2,-1.1184893E0,1.2277393E0,-1.4560144E-1,1.0606093E0,-6.226944E-2,-1.1951683E-1,8.9449906E-1,-4.0819305E-1,1.0403559E0,-1.3704906E0,-3.5797742E-1,1.2774721E0,-6.833386E-2,-1.0680313E0,7.5690365E-1,-1.5468901E-1,1.1611495E0,7.56507E-1,-2.6425895E-1,-6.902571E-2,1.2398216E-1,-6.301389E-1,8.495087E-1,-4.820773E-2,1.36392E0,-1.4911307E0,-2.0910552E-1,5.261938E-1,-1.01992E0,9.464573E-1,1.5730165E0,-2.173979E-2,-1.0646232E-1,1.0207428E-1,-2.173979E-2,7.5690365E-1,-1.115386E-1,1.3442925E0,4.7544792E-1,-1.2568344E0,1.0869862E0,-3.8094562E-1,5.942491E-1,7.537267E-2,-1.00371584E-1,-3.0414674E-1,-1.610388E0,-5.7334166E-2,1.087198E-1,1.279555E-1,-4.2583835E-3,8.504333E-2,-1.5334965E0,-9.174563E-1,9.305719E-1,7.21814E-2,1.2398216E-1,-1.2972903E0,1.3777778E-2,1.1268356E0,-7.367118E-1,1.61292E0,1.3854583E-2,-2.173979E-2,1.0207428E-1,3.9308217E-1,1.5001287E0,-6.830043E-1,1.0645753E0,-1.2929001E-1,-4.7321576E-3,1.494825E0,7.5345296E-1,-1.2753794E0,-2.9004467E-1,7.790776E-1,-9.2172945E-1,-9.5074815E-1,6.4348954E-1,-2.173979E-2,-1.4428636E-1,-1.8842217E0,-1.1835591E0,5.9817083E-2,-1.4368031E0,1.12296425E-1,-2.173979E-2,1.0089839E0,-1.2021542E-1,-1.856878E-1,-1.5335793E0,1.0207428E-1,-9.9975455E-1,1.2256273E0,-3.143377E-2,4.9448956E-2,-1.15834385E-1,3.917415E-2,1.6519918E0,1.1274251E0,-9.11855E-2,1.5812109E0,-3.6296118E-2,4.8671063E-2,-1.2270854E-1,1.2865743E-1,2.1432146E-1,3.2962817E-1,1.3966723E-1,-9.997167E-1,1.2015891E0,2.2273242E-1,-1.5233771E0,1.8008946E-1,-4.7106132E-1,2.0380336E-1,1.360935E0,-9.292853E-2,-2.173979E-2,-1.5501745E0,2.3310024E-1,9.4609946E-1,-6.833386E-2,1.3854583E-2,-1.9423205E0,6.5582544E-1,-1.367765E0,-1.338814E-1,-2.173979E-2,1.2398216E-1,1.5353632E-1,-1.00371584E-1,6.830144E-2,-2.173979E-2,-1.6320559E0,-1.00371584E-1,-2.173979E-2,1.3549058E0,2.916041E-1,3.917415E-2,1.3558896E-1,-2.173979E-2,1.22521244E-1,1.6417457E0,1.00468565E-2,-8.483699E-2,1.06005564E-1,1.09375544E-1,-1.00371584E-1,4.9448956E-2,-1.2021542E-1,1.3332829E-1,6.8868315E-1,-5.7334166E-2,8.504333E-2,7.4100294E-3,-1.7945248E0,-1.0816617E0,4.6604317E-1,-2.0014439E-2,-6.89525E-1,8.979741E-1,-1.2796599E-1,-4.2583835E-3,1.5585889E0,-3.143377E-2,-1.4062284E-1,7.8665954E-1,-9.292853E-2,-1.7549184E-1,1.2960154E-1,-5.813538E-2,-1.5839657E-1,1.12296425E-1,-4.820773E-2,3.917415E-2,-1.4477865E0,-5.813538E-2,9.185482E-2,-1.4381208E-1,-7.3270345E-1,1.4945403E0,4.0510082E-1,-1.0646232E-1,1.12296425E-1,1.3854583E-2,1.6846385E0,-9.592738E-1,1.3968533E0,-1.5399994E-1,-2.173979E-2,8.504333E-2,-1.509681E0,1.3496263E0,1.1590667E-1,1.3064113E-1,-1.1235183E-1,-1.2793607E0,-4.6131566E-1,-1.9860125E-1,1.299697E0,1.3705587E-1,2.777935E-2,-5.7334166E-2,1.1485238E-1,7.537267E-2,-1.0646232E-1,4.9448956E-2,-1.2145203E-1,1.3854583E-2,-1.00371584E-1,8.031298E-2,1.4297894E-1,-1.00371584E-1,1.12296425E-1,4.8671063E-2,1.3812962E-1,1.3854583E-2,-1.15834385E-1,1.3854583E-2,1.24894865E-1,-1.3437235E-1,-2.173979E-2,-2.173979E-2,1.24687105E-1,-3.528451E-2,1.01658456E-1,-3.0160949E-2,8.4204584E-2,6.569779E-2,-1.3312203E-1,6.399374E-2,-5.896678E-2,8.504333E-2,-1.00371584E-1,1.2763466E-1,2.196945E-2],"categories":[],"categories_nodes":[],"categories_segments":[],"categories_sizes":[],"default_left":[0,0,0,0,0,0,0,0,0,0,0,0,0,0,0,0,0,0,0,0,0,0,0,0,0,0,0,0,0,0,0,0,0,0,0,0,0,0,0,0,0,0,0,0,0,0,0,0,0,0,0,0,0,0,0,0,0,0,0,0,0,0,0,0,0,0,0,0,0,0,0,0,0,0,0,0,0,0,0,0,0,0,0,0,0,0,0,0,0,0,0,0,0,0,0,0,0,0,0,0,0,0,0,0,0,0,0,0,0,0,0,0,0,0,0,0,0,0,0,0,0,0,0,0,0,0,0,0,0,0,0,0,0,0,0,0,0,0,0,0,0,0,0,0,0,0,0,0,0,0,0,0,0,0,0,0,0,0,0,0,0,0,0,0,0,0,0,0,0,0,0,0,0,0,0,0,0,0,0,0,0,0,0,0,0,0,0,0,0,0,0,0,0,0,0,0,0,0,0,0,0,0,0,0,0,0,0,0,0,0,0,0,0,0,0,0,0,0,0,0,0,0,0,0,0,0,0,0,0,0,0,0,0,0,0,0,0,0,0,0,0,0,0,0,0,0,0],"id":0,"left_children":[1,3,5,7,9,11,13,-1,15,17,19,21,23,25,27,-1,29,31,33,35,37,39,-1,41,43,45,47,49,51,53,-1,55,57,-1,59,61,63,65,67,69,71,-1,-1,-1,-1,73,-1,75,77,79,81,83,85,-1,-1,87,89,-1,-1,-1,-1,-1,91,93,95,97,-1,99,101,103,105,107,-1,-1,-1,109,111,113,115,-1,-1,117,119,121,123,125,127,129,131,-1,-1,133,135,-1,137,-1,-1,139,-1,141,143,-1,145,147,-1,-1,-1,-1,149,151,-1,153,-1,-1,-1,-1,155,157,-1,159,161,163,165,167,169,171,173,-1,-1,175,177,179,-1,-1,181,183,185,-1,-1,-1,187,-1,-1,-1,189,-1,-1,191,193,-1,-1,-1,-1,195,-1,-1,-1,-1,-1,-1,-1,-1,197,-1,-1,-1,199,201,203,205,207,209,-1,-1,211,-1,-1,213,-1,215,-1,-1,-1,-1,-1,-1,217,-1,-1,-1,219,221,223,-1,-1,-1,225,227,229,-1,-1,-1,231,233,235,237,-1,239,241,243,245,-1,-1,-1,-1,-1,-1,-1,-1,-1,-1,-1,-1,-1,-1,-1,-1,-1,-1,-1,-1,-1,-1,-1,-1,-1,-1,-1,-1,-1,-1,-1,-1,-1,-1,-1,-1],"loss_changes":[1.6498804E2,4.9183777E1,6.586569E1,8.001537E0,4.1839706E1,1.127681E1,7.098226E1,0E0,1.4191568E1,2.0001448E1,2.8248672E1,9.513283E0,6.833791E0,8.746597E0,4.753108E1,0E0,5.621915E0,1.18189E1,7.454894E0,1.5419876E1,2.317254E1,6.322403E0,0E0,4.7401905E-1,2.6123805E0,8.105896E0,7.507866E0,3.9218956E1,2.3296911E1,6.568794E0,0E0,1.0673251E1,6.15205E0,0E0,3.6668072E0,1.261908E1,1.0322397E1,7.889722E0,6.4569073E0,1.3026947E1,1.9925385E0,0E0,0E0,0E0,0E0,2.6123805E0,0E0,6.9186783E0,1.1115776E1,3.5557547E0,5.5941467E0,1.6163595E1,8.548736E0,0E0,0E0,1.7430353E1,1.7042942E0,0E0,0E0,0E0,0E0,0E0,1.0080475E1,7.7650642E0,3.221274E0,2.0660936E1,0E0,4.368801E0,8.619264E0,5.988674E0,5.224449E0,9.212799E-1,0E0,0E0,0E0,1.0836725E1,7.555954E0,7.240947E0,4.500164E0,0E0,0E0,5.6281433E0,2.4138199E1,7.199812E0,1.5904156E1,8.242088E0,2.292769E-1,1.2225706E1,6.1237593E0,0E0,0E0,6.1225586E0,1.8820175E1,0E0,1.2660427E0,0E0,0E0,3.8029413E0,0E0,5.786405E0,1.3549805E0,0E0,3.5390925E-1,3.7929268E0,0E0,0E0,0E0,0E0,1.0475082E0,3.9440613E0,0E0,3.4656143E0,0E0,0E0,0E0,0E0,8.827183E0,9.921376E0,0E0,6.2092853E0,4.506172E0,3.520864E0,7.164116E0,1.9409752E1,1.3238234E1,1.8930363E1,3.5705948E0,0E0,0E0,2.0073986E0,5.923798E0,8.0181675E0,0E0,0E0,7.188263E-1,6.0138717E0,7.903908E0,0E0,0E0,0E0,4.7681947E0,0E0,0E0,0E0,6.5258026E-1,0E0,0E0,3.3988762E0,1.1775482E1,0E0,0E0,0E0,0E0,2.2230682E0,0E0,0E0,0E0,0E0,0E0,0E0,0E0,0E0,1.6483917E1,0E0,0E0,0E0,2.2038193E0,1.0768379E1,1.3275559E1,9.550887E0,1.1601593E1,4.9852743E0,0E0,0E0,1.4615726E0,0E0,0E0,6.142967E0,0E0,7.377533E0,0E0,0E0,0E0,0E0,0E0,0E0,7.7211304E0,0E0,0E0,0E0,1.987802E0,1.9324493E0,1.0448829E1,0E0,0E0,0E0,6.970291E-1,2.7371693E0,1.6366196E0,0E0,0E0,0E0,1.3814983E0,4.5664387E0,2.1264027E1,1.978218E1,0E0,2.1327354E1,2.3847832E1,6.322859E0,1.9829235E0,0E0,0E0,0E0,0E0,0E0,0E0,0E0,0E0,0E0,0E0,0E0,0E0,0E0,0E0,0E0,0E0,0E0,0E0,0E0,0E0,0E0,0E0,0E0,0E0,0E0,0E0,0E0,0E0,0E0,0E0,0E0,0E0,0E0,0E0,0E0,0E0],"parents":[2147483647,0,0,1,1,2,2,3,3,4,4,5,5,6,6,8,8,9,9,10,10,11,11,12,12,13,13,14,14,16,16,17,17,18,18,19,19,20,20,21,21,23,23,24,24,25,25,26,26,27,27,28,28,29,29,31,31,32,32,34,34,35,35,36,36,37,37,38,38,39,39,40,40,45,45,47,47,48,48,49,49,50,50,51,51,52,52,55,55,56,56,62,62,63,63,64,64,65,65,67,67,68,68,69,69,70,70,71,71,75,75,76,76,77,77,78,78,81,81,82,82,83,83,84,84,85,85,86,86,87,87,88,88,91,91,92,92,94,94,97,97,99,99,100,100,102,102,103,103,108,108,109,109,111,111,116,116,117,117,119,119,120,120,121,121,122,122,123,123,124,124,125,125,126,126,129,129,130,130,131,131,134,134,135,135,136,136,140,140,144,144,147,147,148,148,153,153,162,162,166,166,167,167,168,168,169,169,170,170,171,171,174,174,177,177,179,179,186,186,190,190,191,191,192,192,196,196,197,197,198,198,202,202,203,203,204,204,205,205,207,207,208,208,209,209,210,210],"right_children":[2,4,6,8,10,12,14,-1,16,18,20,22,24,26,28,-1,30,32,34,36,38,40,-1,42,44,46,48,50,52,54,-1,56,58,-1,60,62,64,66,68,70,72,-1,-1,-1,-1,74,-1,76,78,80,82,84,86,-1,-1,88,90,-1,-1,-1,-1,-1,92,94,96,98,-1,100,102,104,106,108,-1,-1,-1,110,112,114,116,-1,-1,118,120,122,124,126,128,130,132,-1,-1,134,136,-1,138,-1,-1,140,-1,142,144,-1,146,148,-1,-1,-1,-1,150,152,-1,154,-1,-1,-1,-1,156,158,-1,160,162,164,166,168,170,172,174,-1,-1,176,178,180,-1,-1,182,184,186,-1,-1,-1,188,-1,-1,-1,190,-1,-1,192,194,-1,-1,-1,-1,196,-1,-1,-1,-1,-1,-1,-1,-1,198,-1,-1,-1,200,202,204,206,208,210,-1,-1,212,-1,-1,214,-1,216,-1,-1,-1,-1,-1,-1,218,-1,-1,-1,220,222,224,-1,-1,-1,226,228,230,-1,-1,-1,232,234,236,238,-1,240,242,244,246,-1,-1,-1,-1,-1,-1,-1,-1,-1,-1,-1,-1,-1,-1,-1,-1,-1,-1,-1,-1,-1,-1,-1,-1,-1,-1,-1,-1,-1,-1,-1,-1,-1,-1,-1,-1],"split_conditions":[4E0,2.30196E-1,1.0211641E0,9.600521E1,1.7039073E2,4.1110706E2,1.1610771E2,1.2572752E-1,2.5079872E1,7.792946E1,3.5E1,4.381914E-1,2.833408E2,2.059126E1,2.3384045E-1,-1.1951683E-1,2E0,1.7029387E1,1.720465E1,4.0148506E-1,7.011419E1,3.443835E1,-6.833386E-2,8.628442E1,3.130639E2,6.4E1,3.0066593E1,1.5115886E2,3.0265491E1,1.0198039E1,1.2398216E-1,1.8384777E1,1.7720045E1,-4.820773E-2,1.4142136E1,1.0770329E1,2.2E1,7.5026665E1,3.6124783E1,6.711929E1,2.2041098E2,-2.173979E-2,-1.0646232E-1,1.0207428E-1,-2.173979E-2,2.236068E1,-1.115386E-1,7.2111025E0,3.238827E1,2.0248457E1,5.6435802E1,4.464303E1,1.4583553E2,7.537267E-2,-1.00371584E-1,3.8587563E1,1.328533E2,-5.7334166E-2,1.087198E-1,1.279555E-1,-4.2583835E-3,8.504333E-2,9.002777E1,1.6589455E2,2.5181143E2,5.8898216E1,1.2398216E-1,1.5524175E1,3.2E1,3.1016125E1,4.101219E1,1.4142136E1,1.3854583E-2,-2.173979E-2,1.0207428E-1,2.3086792E1,1.13216606E2,5E1,5.5027267E1,-1.2929001E-1,-4.7321576E-3,5.390733E1,5.7245087E1,3.0083218E1,3.8013157E1,1.25E2,1.2600397E2,2E0,7.0256676E1,-2.173979E-2,-1.4428636E-1,2.4596748E1,5.661272E1,5.9817083E-2,2.2915715E2,1.12296425E-1,-2.173979E-2,4.976947E1,-1.2021542E-1,4.501111E1,1.1183023E2,1.0207428E-1,1.1000455E2,5.6718605E1,-3.143377E-2,4.9448956E-2,-1.15834385E-1,3.917415E-2,2.4698177E1,1.7804493E1,-9.11855E-2,4.14367E1,-3.6296118E-2,4.8671063E-2,-1.2270854E-1,1.2865743E-1,1.3507405E2,1.2206556E2,1.3966723E-1,4.6647614E1,7.209022E1,4.808326E1,3.1764761E1,1.4792227E2,1.0872093E0,1.489765E2,8.6764046E1,-9.292853E-2,-2.173979E-2,2.570992E1,9.861542E1,3.7E1,-6.833386E-2,1.3854583E-2,4.1880783E1,1.20415945E1,9.929078E-1,-1.338814E-1,-2.173979E-2,1.2398216E-1,1.6943436E2,-1.00371584E-1,6.830144E-2,-2.173979E-2,4.3E1,-1.00371584E-1,-2.173979E-2,3.2140316E1,7.891768E1,3.917415E-2,1.3558896E-1,-2.173979E-2,1.22521244E-1,8.485281E0,1.00468565E-2,-8.483699E-2,1.06005564E-1,1.09375544E-1,-1.00371584E-1,4.9448956E-2,-1.2021542E-1,1.3332829E-1,5.162364E1,-5.7334166E-2,8.504333E-2,7.4100294E-3,2.4166092E1,1.2976903E2,2.5942244E1,1.3926234E2,3.9812057E1,5.3037724E1,-1.2796599E-1,-4.2583835E-3,1.3601471E2,-3.143377E-2,-1.4062284E-1,5.5326305E1,-9.292853E-2,9.305912E1,1.2960154E-1,-5.813538E-2,-1.5839657E-1,1.12296425E-1,-4.820773E-2,3.917415E-2,6.2968246E1,-5.813538E-2,9.185482E-2,-1.4381208E-1,1.9106543E2,3.255764E1,4.838388E1,-1.0646232E-1,1.12296425E-1,1.3854583E-2,1.5811388E1,1.2325989E2,1.6446884E2,-1.5399994E-1,-2.173979E-2,8.504333E-2,7.1168816E1,5.491812E1,2.4186773E1,1.7464249E1,-1.1235183E-1,5.124451E1,9.2800865E1,1.8423083E2,8.4693565E1,1.3705587E-1,2.777935E-2,-5.7334166E-2,1.1485238E-1,7.537267E-2,-1.0646232E-1,4.9448956E-2,-1.2145203E-1,1.3854583E-2,-1.00371584E-1,8.031298E-2,1.4297894E-1,-1.00371584E-1,1.12296425E-1,4.8671063E-2,1.3812962E-1,1.3854583E-2,-1.15834385E-1,1.3854583E-2,1.24894865E-1,-1.3437235E-1,-2.173979E-2,-2.173979E-2,1.24687105E-1,-3.528451E-2,1.01658456E-1,-3.0160949E-2,8.4204584E-2,6.569779E-2,-1.3312203E-1,6.399374E-2,-5.896678E-2,8.504333E-2,-1.00371584E-1,1.2763466E-1,2.196945E-2],"split_indices":[2262,2279,2278,1819,283,2056,1079,0,567,93,1167,2280,1635,2163,2279,0,2262,1649,669,2280,499,1167,0,0,672,27,2106,544,2269,2168,0,1766,1766,0,2243,1458,1665,1248,2241,1151,672,0,0,0,0,929,0,1872,2106,1684,2101,1467,2089,0,0,909,9,0,0,0,0,0,1483,742,7,1781,0,2212,1717,2266,439,1980,0,0,0,2180,1361,1758,611,0,0,178,438,1784,2273,833,0,2262,1877,0,0,1215,618,0,11,0,0,428,0,67,896,0,0,242,0,0,0,0,2271,2244,0,499,0,0,0,0,1039,321,0,17,439,19,497,1088,2278,500,2229,0,0,1151,423,1669,0,0,1772,2220,2278,0,0,0,468,0,0,0,2258,0,0,1119,69,0,0,0,0,2156,0,0,0,0,0,0,0,0,1575,0,0,0,67,1042,2160,668,1594,1549,0,0,669,0,0,469,0,542,0,0,0,0,0,0,1158,0,0,0,2,1605,833,0,0,0,1070,376,19,0,0,0,607,1157,2170,2263,0,1249,553,881,980,0,0,0,0,0,0,0,0,0,0,0,0,0,0,0,0,0,0,0,0,0,0,0,0,0,0,0,0,0,0,0,0,0,0,0,0],"split_type":[0,0,0,0,0,0,0,0,0,0,0,0,0,0,0,0,0,0,0,0,0,0,0,0,0,0,0,0,0,0,0,0,0,0,0,0,0,0,0,0,0,0,0,0,0,0,0,0,0,0,0,0,0,0,0,0,0,0,0,0,0,0,0,0,0,0,0,0,0,0,0,0,0,0,0,0,0,0,0,0,0,0,0,0,0,0,0,0,0,0,0,0,0,0,0,0,0,0,0,0,0,0,0,0,0,0,0,0,0,0,0,0,0,0,0,0,0,0,0,0,0,0,0,0,0,0,0,0,0,0,0,0,0,0,0,0,0,0,0,0,0,0,0,0,0,0,0,0,0,0,0,0,0,0,0,0,0,0,0,0,0,0,0,0,0,0,0,0,0,0,0,0,0,0,0,0,0,0,0,0,0,0,0,0,0,0,0,0,0,0,0,0,0,0,0,0,0,0,0,0,0,0,0,0,0,0,0,0,0,0,0,0,0,0,0,0,0,0,0,0,0,0,0,0,0,0,0,0,0,0,0,0,0,0,0,0,0,0,0,0,0,0,0,0,0,0,0],"sum_hessian":[6.584549E2,2.1757207E2,4.4088284E2,1.7715157E1,1.998569E2,8.6579704E1,3.5430313E2,7.485277E0,1.0229879E1,5.0899887E1,1.4895702E2,8.034198E1,6.237731E0,6.911406E1,2.8518906E2,2.4950924E0,7.7347865E0,3.9422462E1,1.1477426E1,1.1128112E2,3.7675896E1,7.8844925E1,1.4970555E0,2.994111E0,3.2436202E0,5.239694E0,6.3874367E1,5.589007E1,2.29299E2,3.4931295E0,4.2416573E0,3.3933258E1,5.4892035E0,1.7465647E0,9.730861E0,1.0055222E2,1.0728897E1,1.6218102E1,2.1457794E1,3.917295E1,3.967197E1,1.2475462E0,1.7465647E0,1.996074E0,1.2475462E0,3.2436202E0,1.996074E0,4.965234E1,1.4222027E1,7.485277E0,4.8404793E1,2.02352E2,2.6946999E1,1.996074E0,1.4970555E0,2.644798E1,7.485277E0,1.2475462E0,4.2416573E0,8.233805E0,1.4970555E0,1.2475462E0,9.930468E1,6.7367496E0,3.992148E0,1.1976444E1,4.2416573E0,1.671712E1,4.7406754E0,3.567982E1,3.4931295E0,3.8424423E1,1.2475462E0,1.2475462E0,1.996074E0,7.485277E0,4.216706E1,4.7406754E0,9.481351E0,5.4892035E0,1.996074E0,2.0210249E1,2.8194544E1,1.7465647E1,1.8488635E2,2.4451906E1,2.4950924E0,1.5719083E1,1.0728897E1,1.2475462E0,6.237731E0,4.7406757E1,5.1897923E1,1.4970555E0,5.239694E0,2.7446017E0,1.2475462E0,7.7347865E0,4.2416573E0,3.2436202E0,1.3473499E1,1.996074E0,2.7446017E0,3.3683746E1,1.996074E0,1.2475462E0,2.2455833E0,1.7465647E0,3.667786E1,5.239694E0,2.2455833E0,4.0670006E1,1.4970555E0,1.996074E0,2.7446017E0,5.239694E0,4.2416573E0,3.992148E0,1.6218102E1,5.4892035E0,2.2705341E1,2.4950924E0,1.4970554E1,5.1398903E1,1.3348744E2,1.2974481E1,1.1477426E1,1.2475462E0,1.2475462E0,1.0229879E1,5.4892035E0,9.231842E0,1.4970555E0,1.2475462E0,4.615921E1,4.4911666E0,4.7406757E1,3.992148E0,1.2475462E0,4.2416573E0,3.4931295E0,1.4970555E0,1.7465647E0,1.2475462E0,1.2225953E1,1.4970555E0,1.2475462E0,2.9192581E1,4.4911666E0,1.7465647E0,3.4931293E1,1.2475462E0,3.992148E0,3.8923443E1,1.7465647E0,1.996074E0,2.2455833E0,2.4950924E0,1.4970555E0,1.2475462E0,4.2416573E0,1.0728897E1,1.1976444E1,1.2475462E0,1.2475462E0,2.2455833E0,1.2724972E1,8.982333E0,4.2416573E1,4.3913628E1,8.957382E1,9.730861E0,3.2436202E0,1.4970555E0,9.98037E0,1.996074E0,8.233805E0,4.2416573E0,1.2475462E0,3.7426386E0,5.4892035E0,1.996074E0,4.4163136E1,2.7446017E0,1.7465647E0,1.7465647E0,4.566019E1,1.996074E0,1.4970555E0,9.481351E0,2.7446017E0,2.4950924E1,4.2416573E0,1.7465647E0,2.7446017E0,1.2475462E0,3.7675896E1,3.4931295E0,8.4833145E0,1.1477426E1,1.2475462E0,1.2475462E0,7.7347865E0,1.1227916E1,3.1188656E1,4.0420498E1,3.4931295E0,2.3703379E1,6.587044E1,2.7446017E0,6.986259E0,8.4833145E0,1.4970555E0,1.2475462E0,2.994111E0,1.996074E0,1.7465647E0,1.2475462E0,4.4412647E1,1.2475462E0,1.4970555E0,1.0978407E1,1.3972518E1,1.4970555E0,2.7446017E0,1.996074E0,3.567982E1,1.2475462E0,2.2455833E0,1.2475462E0,7.2357683E0,6.4872403E0,1.2475462E0,1.2475462E0,9.98037E0,2.1457794E1,9.730861E0,2.644798E1,1.3972518E1,3.4931295E0,2.0210249E1,1.1477426E1,5.4393017E1,1.2475462E0,1.4970555E0,4.990185E0,1.996074E0],"tree_param":{"num_deleted":"0","num_feature":"2282","num_nodes":"247","size_leaf_vector":"1"}},{"base_weights":[5.405612E-4,-6.559834E-1,3.2611167E-1,7.937046E-1,-7.8710264E-1,1.0489135E0,1.4776728E-1,1.17874585E-1,2.1155468E-1,-6.6486254E-2,-1.030501E0,1.1491896E0,-8.917644E-2,9.86438E-1,-5.7188794E-2,-1.1254227E-1,8.38984E-1,-3.8334128E-1,9.695075E-1,-1.4030564E0,-5.800351E-1,1.1970255E0,-6.498012E-2,-9.4038004E-1,7.836007E-1,-1.5461394E-1,1.0814939E0,8.3380944E-1,-2.1694459E-1,-6.905048E-2,1.1686523E-1,-5.902739E-1,7.934645E-1,-4.570787E-2,1.2762065E0,8.816938E-2,-1.4635514E0,6.744472E-1,-7.8261197E-1,8.8016665E-1,1.4865535E0,1.218966E-2,-1.1237408E-1,1.02761045E-1,-2.2997463E-2,5.694137E-1,-1.02259055E-1,1.2552001E0,4.2076096E-1,-8.291712E-1,1.1462005E0,-9.094066E-1,-7.42626E-2,7.159028E-2,-9.544028E-2,-2.867004E-1,-1.4994656E0,-5.4733384E-2,1.0234553E-1,1.1990254E-1,-4.0536704E-3,-1.5395728E0,2.598785E-1,-6.029554E-1,1.2734607E-1,-1.1605259E0,-1.7846553E-1,1.0499845E0,-6.923688E-1,3.5893317E-2,1.5224065E0,-5.587825E-2,1.01972684E-1,1.3156314E0,-3.4527563E-2,-7.551246E-1,1.0001816E0,5.8987074E-2,-1.3421165E0,1.506273E0,7.371364E-1,-1.1328212E0,3.5660517E-1,-1.9246347E-1,6.111202E-1,-8.8730025E-1,5.9783584E-1,-1.7493334E-2,-1.3520516E-1,2.6847392E-2,-1.5813572E0,8.766719E-2,-4.743702E-2,-9.542581E-2,5.1901292E-2,3.7562856E-1,-1.3849179E0,8.9719343E-1,-8.582138E-1,1.1432943E0,-2.9734649E-2,-1.1033346E-1,4.877574E-2,3.7233334E-2,1.24845654E-1,4.5649678E-1,1.4897808E0,3.6765423E-2,-1.15361094E-1,1.21044E-1,2.0189929E-1,-2.0524787E-2,-1.2581144E-1,1.8959838E-1,1.3559996E-1,-8.98822E-1,1.1542974E0,-5.2827317E-1,-1.5487713E0,-6.29281E-2,1.0659266E0,7.030059E-1,-3.313686E-1,1.0640811E0,6.369551E-2,-1.4396704E0,2.098815E-1,8.856175E-1,-6.498012E-2,-1.7907234E0,-1.0884478E0,-1.00166544E-1,1.1757852E-1,1.100603E-1,-1.6279112E0,-4.515367E-2,1.2773348E0,-1.2242918E-1,-2.713438E-1,1.2645572E0,2.705145E-1,9.9686915E-1,-1.0169023E-1,1.5487698E0,9.538718E-3,-8.153677E-2,1.0178152E-1,-5.674163E-2,8.058759E-2,1.5403791E-2,-1.1012208E-1,4.547232E-1,1.2927695E-1,7.625837E-2,-8.081639E-1,-1.4748065E-1,-7.1707565E-1,1.068731E-1,1.3681677E-2,9.9151033E-1,-7.4820024E-1,-4.2030504E-1,7.37769E-1,1.3225186E0,-7.019819E-2,-1.1830535E-1,5.8704513E-1,-2.8277686E-2,-1.3089977E-1,7.38165E-1,-8.869983E-2,-1.6810319E-1,1.2188641E-1,-1.8260293E0,-1.677752E-2,9.488662E-1,-1.4345686E0,-8.593968E-2,1.0136694E-1,1.5348302E-2,-1.7199992E0,1.2467448E-1,1.21122E-2,7.601386E-1,-1.2467052E0,1.1979992E-1,6.4229786E-1,-1.0091749E-1,1.0636512E-1,-1.9282093E-2,1.10696286E-1,1.5907179E0,3.3276245E-2,1.14316635E-1,-8.1012094E-1,4.7398772E-2,-1.0902139E0,8.7080926E-2,-1.2988602E0,1.1287145E-2,1.3350018E0,-1.1469422E-1,4.630094E-2,3.0579567E-1,-5.312857E-1,-7.8400284E-1,1.3341236E0,1.4300499E0,1.2044311E-2,-9.701117E-2,8.84332E-2,1.016986E0,-6.757639E-2,-5.4733384E-2,1.0866882E-1,7.276518E-2,-1.0229887E-1,-6.101328E-2,-1.4881384E-1,1.2741464E-2,9.793643E-2,-1.2729025E-1,5.049602E-2,-1.426399E-1,-1.913565E-2,-2.2335967E-2,9.2431515E-2,-1.847309E-2,-1.205046E-1,-8.17116E-2,1.134813E-1,3.3653535E-2,1.3091911E-1,1.2489132E-2,-1.0429849E-1,-1.2553212E-1,-1.8982554E-2,-1.65272E-2,-1.24502644E-1,-8.310495E-2,1.0428594E-1,1.20102994E-1,-2.1598756E-2,-4.7359336E-2,8.573202E-2,-9.958148E-2,-3.1163363E-2,1.5395171E-2,-1.037529E-1,1.2851825E-1,2.0275649E-2,6.0420506E-2,1.2902749E-1,-6.6331783E-3,1.0575945E-1],"categories":[],"categories_nodes":[],"categories_segments":[],"categories_sizes":[],"default_left":[0,0,0,0,0,0,0,0,0,0,0,0,0,0,0,0,0,0,0,0,0,0,0,0,0,0,0,0,0,0,0,0,0,0,0,0,0,0,0,0,0,0,0,0,0,0,0,0,0,0,0,0,0,0,0,0,0,0,0,0,0,0,0,0,0,0,0,0,0,0,0,0,0,0,0,0,0,0,0,0,0,0,0,0,0,0,0,0,0,0,0,0,0,0,0,0,0,0,0,0,0,0,0,0,0,0,0,0,0,0,0,0,0,0,0,0,0,0,0,0,0,0,0,0,0,0,0,0,0,0,0,0,0,0,0,0,0,0,0,0,0,0,0,0,0,0,0,0,0,0,0,0,0,0,0,0,0,0,0,0,0,0,0,0,0,0,0,0,0,0,0,0,0,0,0,0,0,0,0,0,0,0,0,0,0,0,0,0,0,0,0,0,0,0,0,0,0,0,0,0,0,0,0,0,0,0,0,0,0,0,0,0,0,0,0,0,0,0,0,0,0,0,0,0,0,0,0,0,0,0,0,0,0,0,0,0,0,0,0,0,0,0,0,0,0,0,0,0,0,0,0,0,0,0,0],"id":1,"left_children":[1,3,5,7,9,11,13,-1,15,17,19,21,23,25,27,-1,29,31,33,35,37,39,-1,41,43,45,47,49,51,53,-1,55,57,-1,59,-1,61,63,65,67,69,-1,-1,-1,-1,71,-1,73,75,77,79,81,83,-1,-1,85,87,-1,-1,-1,-1,89,91,93,-1,95,97,99,101,-1,103,-1,-1,105,-1,107,109,-1,111,113,115,117,119,121,123,125,127,-1,-1,-1,129,-1,-1,-1,-1,131,133,135,137,139,-1,-1,-1,-1,-1,141,143,-1,-1,-1,145,-1,-1,147,-1,149,151,153,155,-1,157,159,161,163,165,167,169,171,-1,173,175,-1,-1,177,179,-1,181,-1,183,185,187,189,-1,191,-1,-1,-1,-1,-1,-1,-1,193,-1,-1,195,-1,197,-1,-1,199,201,203,205,207,209,-1,211,-1,-1,213,-1,215,-1,217,-1,219,221,-1,-1,-1,223,-1,-1,225,227,-1,229,-1,-1,-1,-1,231,-1,-1,233,-1,235,-1,237,239,241,-1,-1,243,245,247,249,251,-1,-1,-1,253,-1,-1,-1,-1,-1,-1,-1,-1,-1,-1,-1,-1,-1,-1,-1,-1,-1,-1,-1,-1,-1,-1,-1,-1,-1,-1,-1,-1,-1,-1,-1,-1,-1,-1,-1,-1,-1,-1,-1,-1,-1,-1,-1],"loss_changes":[1.4073769E2,4.2115143E1,5.6584915E1,7.0494576E0,3.512902E1,1.0025192E1,6.0942165E1,0E0,1.2540721E1,1.735446E1,2.4349274E1,8.476471E0,6.6567707E0,7.7182236E0,4.0832973E1,0E0,5.006991E0,1.0290791E1,6.5894117E0,1.3943298E1,1.8209324E1,5.891205E0,0E0,2.491387E0,2.7727568E0,5.794941E0,6.8620605E0,2.3615149E1,2.3937979E1,5.928375E0,0E0,9.196306E0,5.511963E0,0E0,3.2215958E0,0E0,1.0864761E1,1.2925066E1,1.3575451E1,1.1388023E1,7.8889465E-1,0E0,0E0,0E0,0E0,4.895853E0,0E0,5.713623E0,1.0912756E1,6.999787E0,4.3613396E0,1.2119762E1,1.6526371E1,0E0,0E0,1.5077719E1,1.7039299E0,0E0,0E0,0E0,0E0,6.535843E0,3.6654968E0,4.460494E0,0E0,1.3258488E1,1.8619299E1,5.2574196E0,4.8593497E0,0E0,7.992325E-1,0E0,0E0,6.648514E0,0E0,5.2441483E0,3.9595041E0,0E0,1.0953293E0,4.349983E0,1.4242675E1,8.0954895E0,6.493493E0,2.1815388E1,7.3790913E0,1.0430257E1,5.4555335E0,0E0,0E0,0E0,5.805908E0,0E0,0E0,0E0,0E0,1.1629234E1,1.1970131E1,6.2448664E0,5.687068E0,3.30188E0,0E0,0E0,0E0,0E0,0E0,1.0320101E1,3.072258E0,0E0,0E0,0E0,8.13096E0,0E0,0E0,3.2744172E0,0E0,2.6078486E0,4.38608E0,7.390748E0,3.698738E0,0E0,9.1391754E-1,1.0631563E1,1.4657654E1,4.8916664E0,1.2704279E1,1.8222122E0,5.3246956E0,7.0937347E0,0E0,2.4746246E0,1.8957008E1,0E0,0E0,8.863068E0,5.0193634E0,0E0,2.3581467E0,0E0,1.0479546E1,3.3805885E0,1.0555685E1,4.1391253E0,0E0,1.1697006E0,0E0,0E0,0E0,0E0,0E0,0E0,0E0,1.0640097E1,0E0,0E0,6.1648283E0,0E0,8.762538E0,0E0,0E0,6.76404E0,4.911277E0,1.143932E1,1.1891617E1,1.4712715E0,6.6957564E0,0E0,8.038661E0,0E0,0E0,5.5330086E0,0E0,6.8321385E0,0E0,3.9468384E-1,0E0,7.236886E-1,8.031326E0,0E0,0E0,0E0,2.0676727E0,0E0,0E0,2.4694242E0,1.0361958E0,0E0,1.4247949E1,0E0,0E0,0E0,0E0,1.2828522E0,0E0,0E0,2.1048265E0,0E0,4.521715E0,0E0,1.2943592E0,9.812709E0,4.3821774E0,0E0,0E0,1.3827645E1,1.1828144E1,2.2501874E0,2.2289343E0,2.7941895E-1,0E0,0E0,0E0,3.2710075E0,0E0,0E0,0E0,0E0,0E0,0E0,0E0,0E0,0E0,0E0,0E0,0E0,0E0,0E0,0E0,0E0,0E0,0E0,0E0,0E0,0E0,0E0,0E0,0E0,0E0,0E0,0E0,0E0,0E0,0E0,0E0,0E0,0E0,0E0,0E0,0E0,0E0,0E0,0E0,0E0,0E0,0E0,0E0],"parents":[2147483647,0,0,1,1,2,2,3,3,4,4,5,5,6,6,8,8,9,9,10,10,11,11,12,12,13,13,14,14,16,16,17,17,18,18,19,19,20,20,21,21,23,23,24,24,25,25,26,26,27,27,28,28,29,29,31,31,32,32,34,34,36,36,37,37,38,38,39,39,40,40,45,45,47,47,48,48,49,49,50,50,51,51,52,52,55,55,56,56,61,61,62,62,63,63,65,65,66,66,67,67,68,68,70,70,73,73,75,75,76,76,78,78,79,79,80,80,81,81,82,82,83,83,84,84,85,85,86,86,90,90,95,95,96,96,97,97,98,98,99,99,105,105,106,106,110,110,113,113,115,115,116,116,117,117,118,118,120,120,121,121,122,122,123,123,124,124,125,125,126,126,127,127,129,129,130,130,133,133,134,134,136,136,138,138,139,139,140,140,141,141,143,143,151,151,154,154,156,156,159,159,160,160,161,161,162,162,163,163,164,164,166,166,169,169,171,171,173,173,175,175,176,176,180,180,183,183,184,184,186,186,191,191,194,194,196,196,198,198,199,199,200,200,203,203,204,204,205,205,206,206,207,207,211,211],"right_children":[2,4,6,8,10,12,14,-1,16,18,20,22,24,26,28,-1,30,32,34,36,38,40,-1,42,44,46,48,50,52,54,-1,56,58,-1,60,-1,62,64,66,68,70,-1,-1,-1,-1,72,-1,74,76,78,80,82,84,-1,-1,86,88,-1,-1,-1,-1,90,92,94,-1,96,98,100,102,-1,104,-1,-1,106,-1,108,110,-1,112,114,116,118,120,122,124,126,128,-1,-1,-1,130,-1,-1,-1,-1,132,134,136,138,140,-1,-1,-1,-1,-1,142,144,-1,-1,-1,146,-1,-1,148,-1,150,152,154,156,-1,158,160,162,164,166,168,170,172,-1,174,176,-1,-1,178,180,-1,182,-1,184,186,188,190,-1,192,-1,-1,-1,-1,-1,-1,-1,194,-1,-1,196,-1,198,-1,-1,200,202,204,206,208,210,-1,212,-1,-1,214,-1,216,-1,218,-1,220,222,-1,-1,-1,224,-1,-1,226,228,-1,230,-1,-1,-1,-1,232,-1,-1,234,-1,236,-1,238,240,242,-1,-1,244,246,248,250,252,-1,-1,-1,254,-1,-1,-1,-1,-1,-1,-1,-1,-1,-1,-1,-1,-1,-1,-1,-1,-1,-1,-1,-1,-1,-1,-1,-1,-1,-1,-1,-1,-1,-1,-1,-1,-1,-1,-1,-1,-1,-1,-1,-1,-1,-1,-1],"split_conditions":[4E0,2.30196E-1,1.0211641E0,9.600521E1,1.7039073E2,5.9908264E1,1.1610771E2,1.17874585E-1,2.5079872E1,7.792946E1,4.8259712E1,4.381914E-1,1.6169725E2,1.20415945E1,2.193419E-1,-1.1254227E-1,2E0,1.7029387E1,1.720465E1,4.5607018E1,4.8270073E1,3.443835E1,-6.498012E-2,2.3700844E2,5.0665372E2,8.246211E0,3.0066593E1,2.0615528E1,4.792703E1,1.0198039E1,1.1686523E-1,1.8384777E1,1.7720045E1,-4.570787E-2,1.4142136E1,8.816938E-2,4.381914E-1,5.714018E1,4.973932E1,6.711929E1,5.3851647E0,1.218966E-2,-1.1237408E-1,1.02761045E-1,-2.2997463E-2,2.5E1,-1.02259055E-1,1.13216606E2,3.238827E1,4.9648766E1,8.3761566E1,3.5261588E0,3.0265491E1,7.159028E-2,-9.544028E-2,3.8587563E1,1.0630146E1,-5.4733384E-2,1.0234553E-1,1.1990254E-1,-4.0536704E-3,2.4596748E1,1.029563E1,6.708204E1,1.2734607E-1,3.956008E1,3.206244E1,3.1016125E1,3.255764E1,3.5893317E-2,2.4698177E1,-5.587825E-2,1.01972684E-1,7.2111025E0,-3.4527563E-2,5E1,5.5027267E1,5.8987074E-2,8.005623E1,5.2478565E1,5.5569775E1,-2.1610794E0,1.0770329E1,5.9E1,1.489765E2,2E0,7.0256676E1,-1.7493334E-2,-1.3520516E-1,2.6847392E-2,1.5042606E2,8.766719E-2,-4.743702E-2,-9.542581E-2,5.1901292E-2,8.0622574E1,8.102469E1,3.0413813E1,2.0615528E1,5.6718605E1,-2.9734649E-2,-1.1033346E-1,4.877574E-2,3.7233334E-2,1.24845654E-1,4.464303E1,4.14367E1,3.6765423E-2,-1.15361094E-1,1.21044E-1,3.4058773E1,-2.0524787E-2,-1.2581144E-1,5.234501E1,1.3559996E-1,4.3185646E1,1.9416489E1,3.2202484E1,2.3345236E1,-6.29281E-2,4.5705578E1,7.134424E1,1.0673698E1,3.3765778E-1,2.0380627E2,1.627882E1,9.861542E1,3.7E1,-6.498012E-2,1.1401754E1,5.7870544E1,-1.00166544E-1,1.1757852E-1,4.2638012E1,1.5E1,-4.515367E-2,1.6830923E2,-1.2242918E-1,7.000714E1,2.8284271E1,7.891768E1,1.3E1,-1.0169023E-1,2.1213203E1,9.538718E-3,-8.153677E-2,1.0178152E-1,-5.674163E-2,8.058759E-2,1.5403791E-2,-1.1012208E-1,1.0630146E2,1.2927695E-1,7.625837E-2,7.6105194E1,-1.4748065E-1,6.351378E1,1.068731E-1,1.3681677E-2,1.0358572E2,1.7720045E1,5.314132E1,3.2572994E1,9.918165E1,5.400926E1,-1.1830535E-1,1.8677527E2,-2.8277686E-2,-1.3089977E-1,5.5326305E1,-8.869983E-2,2.3323807E1,1.2188641E-1,2.1400934E1,-1.677752E-2,5E1,1.020049E2,-8.593968E-2,1.0136694E-1,1.5348302E-2,3.4713108E1,1.2467448E-1,1.21122E-2,4.3046486E1,3.1639174E-1,1.1979992E-1,6.870953E1,-1.0091749E-1,1.0636512E-1,-1.9282093E-2,1.10696286E-1,5.0990195E0,3.3276245E-2,1.14316635E-1,1.1700427E2,4.7398772E-2,8.400595E1,8.7080926E-2,1.8788294E1,1.9104973E1,4.1036568E1,-1.1469422E-1,4.630094E-2,2.8231188E1,3.2984844E1,3.057627E-1,4.5E1,3.238827E1,1.2044311E-2,-9.701117E-2,8.84332E-2,1.1190568E-1,-6.757639E-2,-5.4733384E-2,1.0866882E-1,7.276518E-2,-1.0229887E-1,-6.101328E-2,-1.4881384E-1,1.2741464E-2,9.793643E-2,-1.2729025E-1,5.049602E-2,-1.426399E-1,-1.913565E-2,-2.2335967E-2,9.2431515E-2,-1.847309E-2,-1.205046E-1,-8.17116E-2,1.134813E-1,3.3653535E-2,1.3091911E-1,1.2489132E-2,-1.0429849E-1,-1.2553212E-1,-1.8982554E-2,-1.65272E-2,-1.24502644E-1,-8.310495E-2,1.0428594E-1,1.20102994E-1,-2.1598756E-2,-4.7359336E-2,8.573202E-2,-9.958148E-2,-3.1163363E-2,1.5395171E-2,-1.037529E-1,1.2851825E-1,2.0275649E-2,6.0420506E-2,1.2902749E-1,-6.6331783E-3,1.0575945E-1],"split_indices":[2262,2279,2278,1819,283,2158,1079,0,567,93,1309,2280,2127,2218,2279,0,2262,1649,669,1724,1704,1167,0,676,719,2047,2106,1684,1023,2168,0,1766,1766,0,2243,0,2280,565,1214,1151,2003,0,0,0,0,833,0,1361,2106,1757,2095,2281,2269,0,0,909,16,0,0,0,0,1215,2182,1249,0,1352,2126,2266,448,0,2271,0,0,1872,0,1758,611,0,390,886,438,2281,2183,2121,500,2262,1877,0,0,0,5,0,0,0,0,350,493,1613,2125,242,0,0,0,0,0,2092,499,0,0,0,1615,0,0,1,0,669,2231,497,0,0,499,909,2281,2280,569,1197,423,1669,0,2277,490,0,0,1435,2140,0,474,0,2272,2272,69,2184,0,1785,0,0,0,0,0,0,0,1505,0,0,1105,0,1158,0,0,1340,1872,1583,2226,1682,2108,0,725,0,0,469,0,2189,0,2163,0,83,647,0,0,0,1577,0,0,1701,2279,0,501,0,0,0,0,2263,0,0,722,0,1105,0,1575,1578,1071,0,0,2236,1777,2280,2227,1577,0,0,0,2281,0,0,0,0,0,0,0,0,0,0,0,0,0,0,0,0,0,0,0,0,0,0,0,0,0,0,0,0,0,0,0,0,0,0,0,0,0,0,0,0,0,0,0],"split_type":[0,0,0,0,0,0,0,0,0,0,0,0,0,0,0,0,0,0,0,0,0,0,0,0,0,0,0,0,0,0,0,0,0,0,0,0,0,0,0,0,0,0,0,0,0,0,0,0,0,0,0,0,0,0,0,0,0,0,0,0,0,0,0,0,0,0,0,0,0,0,0,0,0,0,0,0,0,0,0,0,0,0,0,0,0,0,0,0,0,0,0,0,0,0,0,0,0,0,0,0,0,0,0,0,0,0,0,0,0,0,0,0,0,0,0,0,0,0,0,0,0,0,0,0,0,0,0,0,0,0,0,0,0,0,0,0,0,0,0,0,0,0,0,0,0,0,0,0,0,0,0,0,0,0,0,0,0,0,0,0,0,0,0,0,0,0,0,0,0,0,0,0,0,0,0,0,0,0,0,0,0,0,0,0,0,0,0,0,0,0,0,0,0,0,0,0,0,0,0,0,0,0,0,0,0,0,0,0,0,0,0,0,0,0,0,0,0,0,0,0,0,0,0,0,0,0,0,0,0,0,0,0,0,0,0,0,0,0,0,0,0,0,0,0,0,0,0,0,0,0,0,0,0,0,0],"sum_hessian":[6.564358E2,2.1727643E2,4.3915936E2,1.7602741E1,1.9967369E2,8.594725E1,3.532121E2,7.4144692E0,1.0188272E1,5.0735867E1,1.4893782E2,7.8978745E1,6.9685025E0,6.8617905E1,2.845942E2,2.4994056E0,7.6888666E0,3.9335285E1,1.1400581E1,8.036101E1,6.857682E1,7.74789E1,1.499845E0,3.488639E0,3.4798634E0,5.228489E0,6.338942E1,4.262798E1,2.4196622E2,3.486554E0,4.2023125E0,3.3876724E1,5.458563E0,1.7492839E0,9.651298E0,1.4888191E0,7.887219E1,9.210475E0,5.936634E1,3.892235E1,3.8556545E1,1.2406092E0,2.24803E0,2.2352233E0,1.2446402E0,3.479588E0,1.748901E0,4.948114E1,1.3908279E1,6.4797015E0,3.6148277E1,4.042117E1,2.0154506E2,1.9866052E0,1.4999487E0,2.6382954E1,7.4937706E0,1.2496932E0,4.2088695E0,8.153966E0,1.4973311E0,7.564225E1,3.2299418E0,3.9930706E0,5.2174044E0,3.5954594E1,2.3411749E1,3.542871E1,3.4936426E0,1.7386721E0,3.6817875E1,1.2471149E0,2.2324734E0,4.7982166E1,1.4989718E0,4.490977E0,9.417302E0,1.4904575E0,4.989244E0,1.7798855E1,1.8349422E1,3.44474E1,5.9737678E0,1.7251276E2,2.9032299E1,1.5711634E1,1.067132E1,1.2488608E0,6.24491E0,1.4955325E0,7.414671E1,1.4872248E0,1.7427171E0,2.7460592E0,1.2470114E0,4.4967184E0,3.1457874E1,8.941886E0,1.4469864E1,3.3430347E1,1.9983629E0,2.2484426E0,1.2451998E0,1.7428689E0,3.5075005E1,8.697232E0,3.9284935E1,1.7417735E0,2.7492034E0,5.1884937E0,4.228809E0,1.2440248E0,3.7452195E0,2.4826863E0,1.5316168E1,3.4937084E0,1.4855713E1,1.4965851E1,1.948155E1,2.2456026E0,3.7281651E0,2.2621212E1,1.4989154E2,1.5370416E1,1.3661883E1,1.0242799E1,5.468835E0,9.171474E0,1.499845E0,5.0193687E1,2.3953028E1,1.7495298E0,2.7471883E0,4.47475E0,2.6983124E1,1.7455633E0,7.1963224E0,5.995479E0,8.474384E0,2.8958067E1,4.472281E0,6.947235E0,1.7499971E0,3.7539192E1,1.7457435E0,1.9976398E0,2.231169E0,1.2458727E0,1.2368135E0,1.2453945E0,2.248314E0,6.6952147E0,8.160499E0,1.9958425E0,1.2970009E1,1.3485857E1,5.9956927E0,2.4855058E0,1.2426593E0,1.9134066E1,3.4871454E0,1.3894061E2,1.09509325E1,1.2383066E1,2.9873493E0,2.9984937E0,1.0663389E1,1.998435E0,8.244364E0,4.2188406E0,1.2499943E0,3.7364666E0,5.435008E0,4.8945686E1,1.2480032E0,3.225553E0,2.0727474E1,2.2466626E0,2.2280874E0,1.2475107E0,2.5735613E1,5.4512563E0,1.7450662E0,4.2259445E0,4.24844E0,2.0046968E1,8.9110985E0,1.7498615E0,2.7224195E0,1.743821E0,5.203414E0,3.580897E1,1.7302191E0,3.7087972E0,2.9864175E0,1.9895165E0,1.0980492E1,1.2488521E0,4.7468405E0,5.2331285E0,1.3900938E1,2.2463253E0,1.2408202E0,1.8188084E1,1.2075253E2,2.9946234E0,7.956309E0,1.1140661E1,1.2424052E0,1.4990761E0,1.488273E0,8.423564E0,2.2398255E0,1.2496932E0,2.9691472E0,1.9882598E0,1.7482069E0,2.2487307E0,4.6696957E1,1.2420721E0,1.9834808E0,1.9480835E1,1.2466397E0,2.4489645E1,1.2459692E0,1.2452189E0,2.9807255E0,1.2493562E0,2.9990838E0,2.7344365E0,6.1766624E0,1.7317121E0,3.4077263E1,1.2409686E0,1.745449E0,6.494174E0,4.4863176E0,1.2491422E0,3.4976983E0,2.995313E0,2.2378154E0,1.2654473E1,1.2464643E0,8.477359E0,9.710724E0,1.8723553E1,1.0202898E2,1.2464736E0,1.7481499E0,5.966159E0,1.9901499E0,3.4684436E0,7.6722174E0,1.986849E0,6.436715E0],"tree_param":{"num_deleted":"0","num_feature":"2282","num_nodes":"255","size_leaf_vector":"1"}},{"base_weights":[9.877307E-4,-6.0956407E-1,3.0359498E-1,7.445854E-1,-7.315236E-1,9.799455E-1,1.3778901E-1,1.1118232E-1,1.948607E-1,-6.539018E-2,-9.5611E-1,1.0699186E0,-1.5194981E-1,9.221605E-1,-5.2344736E-2,-1.0649571E-1,7.9066133E-1,-3.6207578E-1,9.078875E-1,-1.2372078E0,-4.4320422E-1,1.1151696E0,-6.187593E-2,-9.9192244E-1,6.7960334E-1,-1.5176232E-1,1.0124398E0,6.669346E-1,-2.2759965E-1,-6.905192E-2,1.1076534E-1,-5.562442E-1,7.4383146E-1,-4.3369498E-2,1.2006725E0,-1.3676859E0,-2.0191868E-1,8.660212E-1,-6.769122E-1,8.210808E-1,1.3796325E0,-1.0074627E-1,-1.7771607E-2,9.530654E-2,-2.4248157E-2,8.461591E-2,-7.524011E-1,1.1753631E0,3.9516112E-1,-1.1148049E0,9.6390235E-1,-4.936367E-1,6.419803E-2,6.811528E-2,-9.101852E-2,-2.7178127E-1,-1.4053382E0,-5.229746E-2,9.675147E-2,1.13068566E-1,-3.8588361E-3,-1.4229945E0,3.71414E-2,-7.949499E-1,7.177118E-1,-1.21592306E-1,1.1809113E-1,-1.0352417E0,-7.937666E-2,9.8172605E-1,-6.5244454E-1,1.4172807E0,8.82472E-3,2.4988241E-2,-1.06799915E-1,1.2331548E0,-3.285816E-2,-7.1165496E-1,9.444812E-1,1.6662747E-2,-1.3716633E0,1.3314596E0,6.653619E-1,3.910601E-1,-6.4858973E-1,-2.2113253E-1,5.5881435E-1,-8.33105E-1,5.5800027E-1,-1.3626229E-2,-1.275793E-1,3.952011E-2,-1.4700643E0,5.6506608E-2,-1.266201E0,1.0550223E-1,-5.29184E-2,4.2440165E-2,-6.3168645E-2,7.775618E-1,-1.2923813E0,1.2002949E0,-6.9473886E-1,1.070496E0,-2.8136862E-2,4.8138697E-2,-1.0542949E-1,3.414011E-2,1.4524096E0,4.2224336E-1,1.399002E0,3.4962848E-2,-1.0902931E-1,1.1457915E-1,1.9080426E-1,-1.6449304E-2,-1.2632446E-1,2.8547448E-1,1.5596039E0,-8.9148164E-1,1.0691271E0,-8.116873E-1,9.898334E-1,-1.382071E0,-5.031017E-1,7.646955E-1,-3.8538304E-1,9.022104E-1,-3.7023917E-1,-1.3459983E0,1.8930447E-1,8.3320755E-1,-6.187593E-2,8.955909E-4,-1.507478E0,-1.1957868E-1,-1.5466849E-2,-1.9264989E-2,1.02269314E-1,5.315335E-2,-1.4376982E0,1.036301E-2,1.1439174E-1,6.180485E-2,-9.4836396E-1,1.1845778E0,2.521082E-1,3.540426E-2,1.4899293E0,9.365971E-1,-9.668467E-2,1.4552151E0,9.0565E-3,-7.8548506E-2,9.793357E-2,9.882017E-2,-9.1138124E-2,4.021449E-2,1.2879032E-1,4.6275914E-2,-1.078744E-1,1.1976829E-1,6.02051E-1,-1.0576912E-1,3.3684E-2,-4.5001283E-2,1.2836322E0,-1.577035E0,2.7554557E-2,7.3655945E-1,-6.998986E-1,-4.074313E-1,1.2337904E0,-1.185936E0,-1.3437812E-1,5.123805E-1,1.19664416E-1,-9.861132E-1,6.6644377E-1,-1.4814161E0,-1.15949E-2,6.9530195E-1,-8.486207E-2,-1.6138946E-1,1.1534777E-1,-1.5370274E0,1.2956187E-3,-1.5886456E0,-3.448634E-1,-1.2042425E-1,3.1329837E-2,1.4045134E0,5.9977394E-1,-9.599656E-2,1.0116847E-1,1.5118037E0,3.8613826E-2,-1.8292082E-2,1.0441318E-1,1.494754E0,3.1667072E-2,-8.919162E-1,1.2560912E0,1.2810376E-1,-5.422117E-2,-1.3460006E-1,-1.8685315E-2,-9.423843E-2,1.1060408E0,-3.5963988E-1,-1.0526358E0,-8.507461E-2,2.776341E-2,-2.4072432E-3,1.2350542E-1,7.254776E-2,-1.6315188E0,3.7424707E-1,-7.764428E-1,1.115555E0,-1.0451434E0,-1.1079874E-1,-1.8745703E-1,1.0436501E-1,-5.458762E-2,-3.9851747E-2,-1.303779E-1,-5.229746E-2,1.0327627E-1,8.5397735E-2,-8.41342E-2,-1.2995137E-1,-7.125578E-2,-2.9931849E-2,-1.3295707E-1,4.8868604E-2,-7.558999E-2,7.671664E-2,-7.819222E-2,7.059781E-2,1.2324426E-1,-7.6747924E-2,1.0710747E-1,6.0621534E-2,1.2466844E-1,3.202383E-2,1.2303608E-1,-1.08429104E-1,1.4292212E-2,9.1456575E-3,1.13260776E-1,1.1161393E-1,-5.0721817E-2,-5.6230996E-2,8.018764E-2,-9.9797025E-2,4.9681682E-2,-8.203667E-2,9.956518E-2,-1.8174138E-2,-1.4333567E-1,-1.1007709E-1,5.5088155E-2,-1.1205953E-1,-1.7081872E-2,-5.502614E-2,1.0683288E-1,1.4152571E-2,-1.12231344E-1,8.100949E-2,-9.467035E-2],"categories":[],"categories_nodes":[],"categories_segments":[],"categories_sizes":[],"default_left":[0,0,0,0,0,0,0,0,0,0,0,0,0,0,0,0,0,0,0,0,0,0,0,0,0,0,0,0,0,0,0,0,0,0,0,0,0,0,0,0,0,0,0,0,0,0,0,0,0,0,0,0,0,0,0,0,0,0,0,0,0,0,0,0,0,0,0,0,0,0,0,0,0,0,0,0,0,0,0,0,0,0,0,0,0,0,0,0,0,0,0,0,0,0,0,0,0,0,0,0,0,0,0,0,0,0,0,0,0,0,0,0,0,0,0,0,0,0,0,0,0,0,0,0,0,0,0,0,0,0,0,0,0,0,0,0,0,0,0,0,0,0,0,0,0,0,0,0,0,0,0,0,0,0,0,0,0,0,0,0,0,0,0,0,0,0,0,0,0,0,0,0,0,0,0,0,0,0,0,0,0,0,0,0,0,0,0,0,0,0,0,0,0,0,0,0,0,0,0,0,0,0,0,0,0,0,0,0,0,0,0,0,0,0,0,0,0,0,0,0,0,0,0,0,0,0,0,0,0,0,0,0,0,0,0,0,0,0,0,0,0,0,0,0,0,0,0,0,0,0,0,0,0,0,0,0,0,0,0,0,0,0,0,0,0,0,0,0,0,0,0],"id":2,"left_children":[1,3,5,7,9,11,13,-1,15,17,19,21,23,25,27,-1,29,31,33,35,37,39,-1,41,43,45,47,49,51,53,-1,55,57,-1,59,61,63,65,67,69,71,-1,-1,-1,-1,-1,73,75,77,79,81,83,85,-1,-1,87,89,-1,-1,-1,-1,91,-1,93,95,97,-1,99,101,103,105,107,-1,-1,-1,109,-1,111,113,-1,115,117,119,121,123,125,127,129,131,-1,-1,-1,133,-1,135,-1,-1,-1,-1,137,139,141,143,145,-1,-1,-1,-1,147,149,151,-1,-1,-1,153,-1,-1,155,157,159,161,163,165,167,169,171,173,175,177,179,181,183,-1,-1,185,-1,-1,-1,-1,-1,187,-1,-1,-1,189,191,193,-1,195,197,-1,199,-1,-1,-1,-1,-1,-1,-1,-1,-1,-1,201,-1,-1,-1,203,205,-1,207,209,211,213,215,217,219,-1,221,223,225,-1,227,-1,229,-1,231,-1,233,235,-1,237,239,241,-1,-1,243,-1,-1,-1,245,-1,247,249,-1,-1,-1,-1,-1,251,253,255,-1,-1,-1,-1,257,259,261,263,265,267,-1,269,-1,-1,-1,-1,-1,-1,-1,-1,-1,-1,-1,-1,-1,-1,-1,-1,-1,-1,-1,-1,-1,-1,-1,-1,-1,-1,-1,-1,-1,-1,-1,-1,-1,-1,-1,-1,-1,-1,-1,-1,-1,-1,-1,-1,-1,-1,-1,-1],"loss_changes":[1.2074235E2,3.6310997E1,4.8865826E1,6.2513113E0,2.9735397E1,8.906998E0,5.2556747E1,0E0,1.113773E1,1.5140308E1,2.0917221E1,7.5078125E0,5.702005E0,6.819023E0,3.5994568E1,0E0,4.4891605E0,9.008597E0,5.8593044E0,1.2639999E1,1.7190605E1,4.946663E0,0E0,5.410669E-1,2.478569E0,5.30039E0,5.9264603E0,3.0684645E1,1.7837933E1,5.36413E0,0E0,7.9800425E0,4.9585E0,0E0,2.862094E0,9.246918E0,7.0468616E0,5.3967686E0,9.897354E0,9.986103E0,1.7401886E0,0E0,0E0,0E0,0E0,0E0,3.349603E0,5.0686493E0,9.656277E0,3.1602545E0,4.4363327E0,1.6717642E1,1.5686837E1,0E0,0E0,1.3120956E1,1.7044964E0,0E0,0E0,0E0,0E0,8.170792E0,0E0,6.337715E0,5.1674013E0,2.2616394E0,0E0,1.4547794E1,1.5445497E1,4.637619E0,4.5333543E0,7.1839905E-1,0E0,0E0,0E0,5.9011383E0,0E0,4.6885376E0,3.515005E0,0E0,1.420146E0,4.503994E0,1.903351E1,1.4143844E1,1.0250793E1,1.1734595E1,1.3295221E1,8.964342E0,4.881427E0,0E0,0E0,0E0,4.493576E0,0E0,1.2345772E0,0E0,0E0,0E0,0E0,2.4669502E0,8.297165E0,1.3862238E0,5.6313353E0,2.8756065E0,0E0,0E0,0E0,0E0,7.321396E-1,9.208328E0,2.7005844E0,0E0,0E0,0E0,7.506352E0,0E0,0E0,8.08865E0,8.355713E-2,5.1249247E0,3.7551403E0,4.776396E0,6.567914E0,6.0655518E0,2.1781507E1,6.2348313E0,1.2143391E1,6.16486E0,8.109935E0,1.6042767E0,4.801744E0,6.324828E0,0E0,0E0,3.5725708E0,0E0,0E0,0E0,0E0,0E0,3.4690475E0,0E0,0E0,0E0,6.4159193E0,2.9607468E0,9.500612E0,0E0,4.1168213E-2,3.6840258E0,0E0,9.9572754E-1,0E0,0E0,0E0,0E0,0E0,0E0,0E0,0E0,0E0,0E0,1.3638132E1,0E0,0E0,0E0,7.9904575E0,1.7211304E0,0E0,1.0095425E1,8.711884E0,2.2158957E0,3.0611248E0,8.241823E0,1.58806E1,1.958021E1,0E0,2.2015524E0,5.147956E0,6.379852E-1,0E0,5.0046024E0,0E0,6.286366E0,0E0,2.9184265E0,0E0,1.2586365E0,3.0042915E0,0E0,5.8125625E0,1.1359787E-1,1.2607508E1,0E0,0E0,4.6691895E-3,0E0,0E0,0E0,1.0945663E0,0E0,2.4676557E0,1.5382223E0,0E0,0E0,0E0,0E0,0E0,6.3858957E0,1.9437576E1,1.2731522E1,0E0,0E0,0E0,0E0,7.3830175E0,2.0091171E0,1.5974251E1,7.2308702E0,6.712322E0,2.866076E0,0E0,5.656198E0,0E0,0E0,0E0,0E0,0E0,0E0,0E0,0E0,0E0,0E0,0E0,0E0,0E0,0E0,0E0,0E0,0E0,0E0,0E0,0E0,0E0,0E0,0E0,0E0,0E0,0E0,0E0,0E0,0E0,0E0,0E0,0E0,0E0,0E0,0E0,0E0,0E0,0E0,0E0,0E0,0E0,0E0,0E0,0E0,0E0,0E0,0E0,0E0],"parents":[2147483647,0,0,1,1,2,2,3,3,4,4,5,5,6,6,8,8,9,9,10,10,11,11,12,12,13,13,14,14,16,16,17,17,18,18,19,19,20,20,21,21,23,23,24,24,25,25,26,26,27,27,28,28,29,29,31,31,32,32,34,34,35,35,36,36,37,37,38,38,39,39,40,40,46,46,47,47,48,48,49,49,50,50,51,51,52,52,55,55,56,56,61,61,63,63,64,64,65,65,67,67,68,68,69,69,70,70,71,71,75,75,77,77,78,78,80,80,81,81,82,82,83,83,84,84,85,85,86,86,87,87,88,88,92,92,94,94,99,99,100,100,101,101,102,102,103,103,108,108,109,109,110,110,114,114,117,117,118,118,119,119,120,120,121,121,122,122,123,123,124,124,125,125,126,126,127,127,128,128,129,129,130,130,131,131,134,134,140,140,144,144,145,145,146,146,148,148,149,149,151,151,162,162,166,166,167,167,169,169,170,170,171,171,172,172,173,173,174,174,175,175,177,177,178,178,179,179,181,181,183,183,185,185,187,187,188,188,190,190,191,191,192,192,195,195,199,199,201,201,202,202,208,208,209,209,210,210,215,215,216,216,217,217,218,218,219,219,220,220,222,222],"right_children":[2,4,6,8,10,12,14,-1,16,18,20,22,24,26,28,-1,30,32,34,36,38,40,-1,42,44,46,48,50,52,54,-1,56,58,-1,60,62,64,66,68,70,72,-1,-1,-1,-1,-1,74,76,78,80,82,84,86,-1,-1,88,90,-1,-1,-1,-1,92,-1,94,96,98,-1,100,102,104,106,108,-1,-1,-1,110,-1,112,114,-1,116,118,120,122,124,126,128,130,132,-1,-1,-1,134,-1,136,-1,-1,-1,-1,138,140,142,144,146,-1,-1,-1,-1,148,150,152,-1,-1,-1,154,-1,-1,156,158,160,162,164,166,168,170,172,174,176,178,180,182,184,-1,-1,186,-1,-1,-1,-1,-1,188,-1,-1,-1,190,192,194,-1,196,198,-1,200,-1,-1,-1,-1,-1,-1,-1,-1,-1,-1,202,-1,-1,-1,204,206,-1,208,210,212,214,216,218,220,-1,222,224,226,-1,228,-1,230,-1,232,-1,234,236,-1,238,240,242,-1,-1,244,-1,-1,-1,246,-1,248,250,-1,-1,-1,-1,-1,252,254,256,-1,-1,-1,-1,258,260,262,264,266,268,-1,270,-1,-1,-1,-1,-1,-1,-1,-1,-1,-1,-1,-1,-1,-1,-1,-1,-1,-1,-1,-1,-1,-1,-1,-1,-1,-1,-1,-1,-1,-1,-1,-1,-1,-1,-1,-1,-1,-1,-1,-1,-1,-1,-1,-1,-1,-1,-1,-1],"split_conditions":[4E0,2.30196E-1,1.0211641E0,9.600521E1,1.7039073E2,4.1110706E2,1.1610771E2,1.1118232E-1,2.5079872E1,7.792946E1,3.0610456E1,4.381914E-1,2.833408E2,1.20415945E1,2.3384045E-1,-1.0649571E-1,2E0,1.7029387E1,1.720465E1,4.0148506E-1,4.1036568E1,3.443835E1,-6.187593E-2,3.7078564E2,1.9334166E2,3.7161808E1,3.0066593E1,1.5115886E2,2.7294687E1,1.0198039E1,1.1076534E-1,1.8384777E1,1.7720045E1,-4.3369498E-2,1.4142136E1,3.5468296E1,2.2E1,1.9416489E1,5.2810986E1,6.711929E1,1.7210461E2,-1.0074627E-1,-1.7771607E-2,9.530654E-2,-2.4248157E-2,8.461591E-2,5.0990195E0,1.13216606E2,3.238827E1,1.0218121E2,5.6435802E1,2.6076809E1,1.7751274E0,6.811528E-2,-9.101852E-2,3.8587563E1,2.2803509E1,-5.229746E-2,9.675147E-2,1.13068566E-1,-3.8588361E-3,4.535416E1,3.71414E-2,1.2E1,5.85235E1,6.61211E1,1.1809113E-1,3.956008E1,1.16297035E2,3.1016125E1,5.032892E1,5.3851647E0,8.82472E-3,2.4988241E-2,-1.06799915E-1,7.2111025E0,-3.285816E-2,5E1,5.5027267E1,1.6662747E-2,2.5553865E1,5.390733E1,5.7245087E1,3.7536648E1,1.3036104E2,3.3600594E1,1.04388695E2,2E0,7.0256676E1,-1.3626229E-2,-1.275793E-1,3.952011E-2,2.4758837E1,5.6506608E-2,3.361547E1,1.0550223E-1,-5.29184E-2,4.2440165E-2,-6.3168645E-2,9.831073E1,2.4083189E1,3.2359387E2,5.4378304E1,5.6718605E1,-2.8136862E-2,4.8138697E-2,-1.0542949E-1,3.414011E-2,2.4698177E1,4.464303E1,4.14367E1,3.4962848E-2,-1.0902931E-1,1.1457915E-1,2.5495098E1,-1.6449304E-2,-1.2632446E-1,1.2206556E2,1.7110522E2,4.579301E1,7.209022E1,4.004997E1,3.498571E1,2.4083189E1,5.700877E1,6.2008064E1,4.9365982E1,6.3812225E1,8.065358E1,1.6643316E1,9.861542E1,3.7E1,-6.187593E-2,8.955909E-4,1.1642802E1,-1.1957868E-1,-1.5466849E-2,-1.9264989E-2,1.02269314E-1,5.315335E-2,6.694027E1,1.036301E-2,1.1439174E-1,6.180485E-2,2.8071337E1,2.8284271E1,7.891768E1,3.540426E-2,4.0621567E-1,1.3E1,-9.668467E-2,2.1213203E1,9.0565E-3,-7.8548506E-2,9.793357E-2,9.882017E-2,-9.1138124E-2,4.021449E-2,1.2879032E-1,4.6275914E-2,-1.078744E-1,1.1976829E-1,5.162364E1,-1.0576912E-1,3.3684E-2,-4.5001283E-2,8.005623E1,1.3817743E2,2.7554557E-2,9.219544E0,8.490583E1,3.138471E1,1.1672617E2,3.1304953E1,2.040245E2,2.8192374E2,1.19664416E-1,7.7491936E1,1.8677527E2,2.8460499E1,-1.15949E-2,5.5326305E1,-8.486207E-2,2.7658634E1,1.1534777E-1,3.7589893E1,1.2956187E-3,8.132035E1,1.3705838E2,-1.2042425E-1,4.004997E1,4.1231055E0,6.870953E1,-9.599656E-2,1.0116847E-1,-1.57678795E1,3.8613826E-2,-1.8292082E-2,1.0441318E-1,5.0990195E0,3.1667072E-2,1.9924858E1,-1.0784298E1,1.2810376E-1,-5.422117E-2,-1.3460006E-1,-1.8685315E-2,-9.423843E-2,4.788528E1,1.14865135E2,3.8209946E1,-8.507461E-2,2.776341E-2,-2.4072432E-3,1.2350542E-1,6.6910385E1,7.6843994E1,5.85235E1,2.650453E2,1.5132746E1,1.029563E1,-1.1079874E-1,1.3223087E2,1.0436501E-1,-5.458762E-2,-3.9851747E-2,-1.303779E-1,-5.229746E-2,1.0327627E-1,8.5397735E-2,-8.41342E-2,-1.2995137E-1,-7.125578E-2,-2.9931849E-2,-1.3295707E-1,4.8868604E-2,-7.558999E-2,7.671664E-2,-7.819222E-2,7.059781E-2,1.2324426E-1,-7.6747924E-2,1.0710747E-1,6.0621534E-2,1.2466844E-1,3.202383E-2,1.2303608E-1,-1.08429104E-1,1.4292212E-2,9.1456575E-3,1.13260776E-1,1.1161393E-1,-5.0721817E-2,-5.6230996E-2,8.018764E-2,-9.9797025E-2,4.9681682E-2,-8.203667E-2,9.956518E-2,-1.8174138E-2,-1.4333567E-1,-1.1007709E-1,5.5088155E-2,-1.1205953E-1,-1.7081872E-2,-5.502614E-2,1.0683288E-1,1.4152571E-2,-1.12231344E-1,8.100949E-2,-9.467035E-2],"split_indices":[2262,2279,2278,1819,283,2056,1079,0,567,93,1579,2280,1635,2218,2279,0,2262,1649,669,2280,2154,1167,0,703,2264,547,2106,544,2174,2168,0,1766,1766,0,2243,2272,1665,2173,1214,1151,1151,0,0,0,0,0,2262,1361,2106,100,2101,2206,2281,0,0,909,101,0,0,0,0,1761,0,1872,16,242,0,1352,563,2266,497,2003,0,0,0,1872,0,1758,611,0,2175,178,438,1392,991,325,980,2262,1877,0,0,0,1310,0,724,0,0,0,0,2,2090,689,1247,242,0,0,0,0,2271,2092,499,0,0,0,1650,0,0,321,24,82,439,556,1731,2156,1553,1619,2132,1071,961,961,423,1669,0,0,2281,0,0,0,0,0,1594,0,0,0,2135,2272,69,0,2279,2184,0,1785,0,0,0,0,0,0,0,0,0,0,1575,0,0,0,825,481,0,2212,1590,1546,887,2184,226,583,0,847,725,978,0,469,0,1291,0,1350,0,553,825,0,2170,2152,501,0,0,2281,0,0,0,2263,0,1683,2281,0,0,0,0,0,2229,1624,1815,0,0,0,0,612,505,2090,85,1813,2168,0,17,0,0,0,0,0,0,0,0,0,0,0,0,0,0,0,0,0,0,0,0,0,0,0,0,0,0,0,0,0,0,0,0,0,0,0,0,0,0,0,0,0,0,0,0,0,0,0,0],"split_type":[0,0,0,0,0,0,0,0,0,0,0,0,0,0,0,0,0,0,0,0,0,0,0,0,0,0,0,0,0,0,0,0,0,0,0,0,0,0,0,0,0,0,0,0,0,0,0,0,0,0,0,0,0,0,0,0,0,0,0,0,0,0,0,0,0,0,0,0,0,0,0,0,0,0,0,0,0,0,0,0,0,0,0,0,0,0,0,0,0,0,0,0,0,0,0,0,0,0,0,0,0,0,0,0,0,0,0,0,0,0,0,0,0,0,0,0,0,0,0,0,0,0,0,0,0,0,0,0,0,0,0,0,0,0,0,0,0,0,0,0,0,0,0,0,0,0,0,0,0,0,0,0,0,0,0,0,0,0,0,0,0,0,0,0,0,0,0,0,0,0,0,0,0,0,0,0,0,0,0,0,0,0,0,0,0,0,0,0,0,0,0,0,0,0,0,0,0,0,0,0,0,0,0,0,0,0,0,0,0,0,0,0,0,0,0,0,0,0,0,0,0,0,0,0,0,0,0,0,0,0,0,0,0,0,0,0,0,0,0,0,0,0,0,0,0,0,0,0,0,0,0,0,0,0,0,0,0,0,0,0,0,0,0,0,0,0,0,0,0,0,0],"sum_hessian":[6.5151666E2,2.1556674E2,4.3594995E2,1.738882E1,1.9817792E2,8.4864235E1,3.5108572E2,7.2967415E0,1.0092079E1,5.02942E1,1.4788371E2,7.8665924E1,6.198313E0,6.774844E1,2.8333728E2,2.4871936E0,7.604885E0,3.902587E1,1.1268328E1,9.4616844E1,5.326687E1,7.7166664E1,1.4992528E0,2.9876044E0,3.2107089E0,5.2008133E0,6.254763E1,5.496108E1,2.2837619E2,3.4681969E0,4.136688E0,3.3620087E1,5.405784E0,1.749988E0,9.51834E0,8.374175E1,1.0875097E1,7.658516E0,4.5608353E1,3.848034E1,3.868633E1,1.7453414E0,1.2422628E0,1.9716861E0,1.2390229E0,1.4732611E0,3.727552E0,4.8771008E1,1.3776623E1,7.4584002E0,4.7502678E1,1.19099434E2,1.0927676E2,1.9724935E0,1.4957035E0,2.6172033E1,7.448054E0,1.2498288E0,4.155955E0,8.020759E0,1.4975811E0,8.150429E1,2.2374618E0,6.693996E0,4.181101E0,3.2302825E0,4.4282336E0,2.8053026E1,1.7555326E1,3.499852E1,3.4818177E0,3.7458736E1,1.2275928E0,1.4823236E0,2.2452283E0,4.7271126E1,1.4998806E0,4.4715166E0,9.305106E0,1.2432864E0,6.2151136E0,1.9739677E1,2.7763E1,1.7523893E1,1.0157555E2,6.965032E1,3.9626434E1,1.5608989E1,1.0563045E1,1.2429084E0,6.205146E0,1.7257339E0,7.977856E1,1.4800619E0,5.2139344E0,2.942523E0,1.238578E0,1.7387893E0,1.4914932E0,3.2334821E0,2.4819544E1,5.391963E0,1.2163364E1,3.29989E1,1.9996219E0,1.2401403E0,2.2416775E0,1.7332939E0,3.572544E1,8.628408E0,3.864272E1,1.7368048E0,2.7347116E0,5.1025467E0,4.2025595E0,1.2392075E0,4.9759064E0,3.93768E0,1.5801997E1,5.4687195E0,2.2294281E1,5.7062483E0,1.1817644E1,1.5406045E1,8.6169495E1,9.425143E0,6.0225178E1,2.895354E1,1.0672893E1,1.0183783E1,5.425206E0,9.063792E0,1.4992528E0,1.9826745E0,7.7795876E1,3.9741735E0,1.2397608E0,1.2370732E0,1.996409E0,1.4688057E0,2.3350739E1,1.2282331E0,4.16373E0,1.4910586E0,1.0672306E1,2.8568977E1,4.4299216E0,1.7381318E0,3.398731E1,6.883151E0,1.7452579E0,3.6897835E1,1.7448828E0,1.9919478E0,2.2106118E0,2.4424162E0,1.4952637E0,1.2169491E0,1.4585048E1,1.2338202E0,4.234899E0,1.0483293E1,1.1810988E1,3.984094E0,1.7221546E0,1.735122E0,1.0082522E1,1.3920641E1,1.4854039E0,1.1429588E1,7.4739914E1,2.7314713E0,6.6936717E0,1.3486547E1,4.673863E1,1.8600964E1,1.0352578E1,6.725926E0,3.946967E0,8.942148E0,1.2416352E0,4.1779027E0,1.2473036E0,3.7198713E0,5.3439207E0,7.630725E1,1.4886281E0,2.0118225E1,3.232513E0,6.4621696E0,4.210136E0,1.9742466E1,8.826512E0,1.7438492E0,2.6860726E0,3.2774635E1,1.2126749E0,1.7452054E0,5.1379457E0,3.5174065E1,1.7237694E0,3.485549E0,8.325439E0,8.835182E0,1.2473397E0,1.2673391E1,1.2472497E0,1.4949604E0,9.934628E0,3.907083E1,3.566908E1,1.242039E0,1.4894325E0,1.4963756E0,5.197296E0,3.7453992E0,9.741148E0,2.6312078E1,2.042655E1,1.3612919E1,4.9880443E0,3.996046E0,2.7298796E0,2.7016108E0,1.2453561E0,1.7432697E0,7.1988783E0,1.2498288E0,2.9280736E0,1.4791658E0,2.2407055E0,6.5887886E1,1.0419365E1,1.4928302E0,1.8625395E1,1.239737E0,1.992776E0,2.218944E0,1.991192E0,5.6289086E0,1.4113557E1,2.742645E0,6.0838675E0,2.9104195E0,2.9864216E1,1.7254015E0,3.3448666E1,2.2468634E0,1.2386857E0,1.231944E0,7.093496E0,8.68904E0,1.2455875E0,3.1592749E1,7.4780803E0,3.2177956E1,3.4911237E0,1.998319E0,1.7470803E0,1.2448944E0,8.496254E0,3.4921257E0,2.2819954E1,8.979524E0,1.1447027E1,1.2479548E0,1.2364964E1,1.2440231E0,3.744021E0,1.2304437E0,1.4994359E0],"tree_param":{"num_deleted":"0","num_feature":"2282","num_nodes":"271","size_leaf_vector":"1"}},{"base_weights":[1.2313346E-3,-5.686278E-1,2.8326297E-1,7.0190555E-1,-6.825464E-1,9.2157316E-1,1.2790477E-1,1.3173892E0,1.8018343E-1,-6.4514324E-2,-8.90563E-1,1.0136836E0,-1.00418486E-1,8.670859E-1,-4.9572557E-2,3.486285E-2,1.1245353E-1,-1.0119715E-1,7.4811757E-1,-3.436206E-1,8.535513E-1,-1.3913604E0,-6.285218E-1,1.0578157E0,-5.8992073E-2,-8.776881E-1,7.049745E-1,-1.399825E-1,9.526499E-1,6.2669706E-1,-2.1260922E-1,-6.905412E-2,1.0546973E-1,-5.2672863E-1,6.9943374E-1,1.158142E0,-3.8635477E-2,8.260557E-2,-1.4863498E0,5.8794314E-1,-7.1592534E-1,6.777344E-1,1.259045E0,1.1756813E-2,-1.04746275E-1,9.4886884E-2,-2.3650086E-2,5.30999E-1,-9.404691E-2,1.1064258E0,3.727216E-1,-1.0477582E0,9.087291E-1,-4.584275E-1,5.716923E-2,6.490644E-2,-8.702857E-2,-2.9792753E-1,-1.1820366E-1,-5.001046E-2,9.17849E-2,-2.574135E-2,1.1179854E-1,4.4529345E-2,-1.5512198E0,-5.191994E-1,1.0197086E-1,-1.4141215E0,-5.047098E-1,9.8823893E-1,-8.2932734E-1,5.360883E-3,1.2880709E0,-5.0475076E-2,9.451658E-2,3.408879E-1,1.2429223E0,-6.7293185E-1,8.957487E-1,1.8733975E-2,-1.3009074E0,1.2601486E0,6.2478024E-1,-1.02716014E-1,-8.0500394E-1,8.968347E-1,-9.283572E-2,-9.8159194E-1,1.8362366E-1,-1.3576032E-5,-1.6020784E0,1.5463635E-2,-7.948437E-2,-1.5240686E0,1.4540621E-2,4.3610904E-1,-6.8564785E-1,1.2635847E0,3.841026E-1,-1.2118847E-1,7.033061E-2,2.7751388E-2,1.3150659E0,1.0065161E0,-8.9501314E-2,1.3147542E0,-3.128049E-2,-9.54864E-2,4.8534226E-2,1.0901235E-1,1.8083425E-1,-1.2092897E-1,-1.2535365E-2,2.6730216E-1,1.478662E0,-8.352397E-1,1.00696E0,-7.9891574E-1,3.0292293E-1,-1.1570603E0,-3.2399318E-1,-6.607492E-2,1.1511369E0,-3.662234E-1,3.9127386E-1,5.4570325E-2,-1.2359813E0,-3.7268212E-1,9.944998E-1,-4.5042027E-2,-1.636475E0,-1.236016E-2,-1.3336673E-1,-5.405972E-1,1.2826037E0,-1.2454879E-1,-4.668795E-1,1.1610137E-2,1.12482205E-1,-1.048247E0,1.0896507E-1,1.5393535E0,1.1107274E0,4.682066E-3,9.692497E-2,1.3726445E0,1.002508E-2,-7.4507356E-2,9.3516506E-2,9.439414E-2,-8.713838E-2,3.584281E-2,1.2238053E-1,4.4341657E-2,-1.01613164E-1,1.1883913E-1,6.157718E-1,-1.0496947E0,5.3670406E-1,1.0833402E0,-1.1765154E-1,5.3971995E-2,-1.3036852E0,1.0032657E0,-8.8466597E-1,2.660257E-1,1.272498E-1,-1.1392143E0,-1.1074218E-1,5.505759E-1,-1.04703754E-1,-1.1943235E-1,-1.2374321E-2,5.055924E-1,-1.0633114E-1,1.0020208E-1,-3.0183678E-3,-4.5332067E-2,-1.3435979E-1,-1.1012404E0,8.050081E-2,1.1893606E-2,1.199633E-1,7.614265E-1,-6.784587E-1,-1.0567044E-1,-1.7036688E-2,1.2649639E-1,3.967717E-2,-2.1992092E-1,1.3241627E0,1.4341644E0,2.0817466E-2,9.5563495E-1,-8.0084085E-2,6.514069E-2,-1.2803144E0,9.623742E-2,-4.7350626E-2,-5.0034072E-2,1.3046452E0,8.1343526E-1,-4.9751946E-1,5.191262E-2,-1.4183186E0,-5.0320506E-2,1.3724002E0,-1.2416865E0,5.833917E-1,1.0532811E-1,-8.728594E-2,4.1688986E-2,-1.397895E0,1.24576785E-1,-3.359409E-1,6.271398E-2,1.3683866E0,-7.5284526E-2,1.0636738E-1,-1.4082837E-2,-1.07446395E-1,7.6389327E-3,1.0633282E-1,-8.905517E-2,-1.7337263E-2,7.652638E-2,-7.323204E-2,1.3274259E-2,1.11287795E-1,4.166718E-2,1.1941744E-1,-2.918918E-2,1.0549216E-1,-2.1375226E-2,-1.189739E-1,1.2569495E-1,-3.1246342E-2,-2.2945723E-2,1.09140605E-1,-1.00370675E-1,2.641754E-2,-8.078444E-2,8.69503E-2,-1.2516079E-2,-1.1739929E-1,1.2805624E-1,1.2030714E-2,-1.2804455E-2,-1.22540355E-1,1.0101112E-1,-3.7263725E-2,9.808142E-3,-1.3116877E-1,1.8384285E-2,-6.623268E-2,3.447064E-2,-1.0489612E-1,1.076078E-2,1.1980621E-1],"categories":[],"categories_nodes":[],"categories_segments":[],"categories_sizes":[],"default_left":[0,0,0,0,0,0,0,0,0,0,0,0,0,0,0,0,0,0,0,0,0,0,0,0,0,0,0,0,0,0,0,0,0,0,0,0,0,0,0,0,0,0,0,0,0,0,0,0,0,0,0,0,0,0,0,0,0,0,0,0,0,0,0,0,0,0,0,0,0,0,0,0,0,0,0,0,0,0,0,0,0,0,0,0,0,0,0,0,0,0,0,0,0,0,0,0,0,0,0,0,0,0,0,0,0,0,0,0,0,0,0,0,0,0,0,0,0,0,0,0,0,0,0,0,0,0,0,0,0,0,0,0,0,0,0,0,0,0,0,0,0,0,0,0,0,0,0,0,0,0,0,0,0,0,0,0,0,0,0,0,0,0,0,0,0,0,0,0,0,0,0,0,0,0,0,0,0,0,0,0,0,0,0,0,0,0,0,0,0,0,0,0,0,0,0,0,0,0,0,0,0,0,0,0,0,0,0,0,0,0,0,0,0,0,0,0,0,0,0,0,0,0,0,0,0,0,0,0,0,0,0,0,0,0,0,0,0,0,0,0,0,0,0,0,0,0,0,0,0,0,0,0,0,0,0,0,0,0,0],"id":3,"left_children":[1,3,5,7,9,11,13,15,17,19,21,23,25,27,29,-1,-1,-1,31,33,35,37,39,41,-1,43,45,47,49,51,53,55,-1,57,59,61,-1,-1,63,65,67,69,71,-1,-1,-1,-1,73,-1,75,77,79,81,83,85,-1,-1,87,-1,-1,-1,-1,-1,-1,89,91,-1,93,95,97,99,-1,101,-1,-1,103,105,107,109,-1,111,113,115,117,119,121,123,125,127,-1,129,-1,-1,131,-1,133,135,137,139,-1,-1,-1,141,143,-1,145,-1,-1,-1,-1,147,-1,-1,149,151,153,155,157,159,161,163,-1,165,167,169,-1,171,173,175,-1,177,-1,-1,179,181,-1,183,-1,-1,185,-1,187,189,-1,-1,191,-1,-1,-1,-1,-1,-1,-1,-1,-1,-1,193,195,197,199,201,-1,203,205,207,209,-1,211,213,215,-1,-1,-1,217,-1,-1,-1,-1,-1,219,-1,-1,-1,221,223,-1,-1,-1,-1,225,227,229,-1,231,-1,-1,233,-1,-1,-1,235,237,239,241,243,-1,245,247,249,-1,-1,-1,251,-1,253,255,257,-1,-1,-1,-1,-1,-1,-1,-1,-1,-1,-1,-1,-1,-1,-1,-1,-1,-1,-1,-1,-1,-1,-1,-1,-1,-1,-1,-1,-1,-1,-1,-1,-1,-1,-1,-1,-1,-1,-1,-1,-1,-1],"loss_changes":[1.0384642E2,3.1440598E1,4.2744167E1,5.5730953E0,2.5245949E1,8.051109E0,4.5798306E1,2.1186829E-2,9.935042E0,1.3269608E1,1.8439705E1,6.7733E0,5.5588884E0,5.95681E0,3.1247147E1,0E0,0E0,0E0,4.04755E0,7.9217744E0,5.4823933E0,1.2985687E1,1.0887985E1,4.9638596E0,0E0,2.1655624E0,2.48334E0,4.9075785E0,5.153961E0,2.6959023E1,1.5154644E1,4.864965E0,0E0,7.002696E0,4.475689E0,4.0423975E0,0E0,0E0,7.2602158E0,6.0963874E0,1.28973465E1,1.4153514E1,1.5939713E0,0E0,0E0,0E0,0E0,4.0931907E0,0E0,4.6784706E0,8.582141E0,3.0315685E0,3.9691658E0,1.4646202E1,1.3894235E1,0E0,0E0,9.6714E0,0E0,0E0,0E0,0E0,0E0,0E0,3.7109375E0,1.3570435E0,0E0,3.9409332E0,1.2626343E1,3.5207443E0,7.6697736E0,0E0,7.4694824E-1,0E0,0E0,9.643534E0,5.333359E0,4.345464E0,3.1431084E0,0E0,1.4917173E0,4.0130386E0,1.6658886E1,1.7216337E1,9.847961E0,8.273101E0,1.2575858E1,5.9523325E0,8.380884E0,0E0,7.066498E-1,0E0,0E0,3.5897331E0,0E0,1.0855945E1,1.0922966E1,2.361946E0,1.4001925E1,0E0,0E0,0E0,3.8352203E-1,1.2017732E0,0E0,2.5520554E0,0E0,0E0,0E0,0E0,6.7645907E0,0E0,0E0,7.334107E0,1.7998505E-1,4.5884314E0,3.3758354E0,8.067104E0,1.2830799E1,1.0136543E1,2.0905754E1,0E0,5.404608E0,1.1831734E1,1.0033257E1,0E0,2.7768078E0,1.0130173E1,2.0443048E0,0E0,1.0536041E0,0E0,0E0,6.667505E0,1.4698238E0,0E0,1.3584652E1,0E0,0E0,6.768122E-1,0E0,5.3462982E-2,8.09914E0,0E0,0E0,2.201706E0,0E0,0E0,0E0,0E0,0E0,0E0,0E0,0E0,0E0,0E0,8.824923E0,9.295782E0,3.8725107E0,5.9783726E0,9.618986E0,0E0,5.0857544E0,5.959078E0,1.09150095E1,1.023553E1,0E0,7.1424084E0,1.8033552E1,1.273901E1,0E0,0E0,0E0,9.111495E0,0E0,0E0,0E0,0E0,0E0,9.2318106E-1,0E0,0E0,0E0,2.8447776E0,8.475454E0,0E0,0E0,0E0,0E0,4.686758E0,1.6169624E0,1.1173401E0,0E0,6.398161E0,0E0,0E0,3.264843E0,0E0,0E0,0E0,6.221195E0,5.1962805E0,1.2398834E1,4.92096E0,1.617878E0,0E0,1.7713089E0,4.761999E0,3.783538E0,0E0,0E0,0E0,5.0495033E0,0E0,1.1850672E1,1.1279318E1,1.7054615E0,0E0,0E0,0E0,0E0,0E0,0E0,0E0,0E0,0E0,0E0,0E0,0E0,0E0,0E0,0E0,0E0,0E0,0E0,0E0,0E0,0E0,0E0,0E0,0E0,0E0,0E0,0E0,0E0,0E0,0E0,0E0,0E0,0E0,0E0,0E0,0E0,0E0,0E0,0E0,0E0,0E0,0E0],"parents":[2147483647,0,0,1,1,2,2,3,3,4,4,5,5,6,6,7,7,8,8,9,9,10,10,11,11,12,12,13,13,14,14,18,18,19,19,20,20,21,21,22,22,23,23,25,25,26,26,27,27,28,28,29,29,30,30,31,31,33,33,34,34,35,35,38,38,39,39,40,40,41,41,42,42,47,47,49,49,50,50,51,51,52,52,53,53,54,54,57,57,64,64,65,65,67,67,68,68,69,69,70,70,72,72,75,75,76,76,77,77,78,78,80,80,81,81,82,82,83,83,84,84,85,85,86,86,87,87,88,88,90,90,93,93,95,95,96,96,97,97,98,98,102,102,103,103,105,105,110,110,113,113,114,114,115,115,116,116,117,117,118,118,119,119,120,120,122,122,123,123,124,124,126,126,127,127,128,128,130,130,133,133,134,134,136,136,139,139,141,141,142,142,145,145,156,156,157,157,158,158,159,159,160,160,162,162,163,163,164,164,165,165,167,167,168,168,169,169,173,173,179,179,183,183,184,184,189,189,190,190,191,191,193,193,196,196,200,200,201,201,202,202,203,203,204,204,206,206,207,207,208,208,212,212,214,214,215,215,216,216],"right_children":[2,4,6,8,10,12,14,16,18,20,22,24,26,28,30,-1,-1,-1,32,34,36,38,40,42,-1,44,46,48,50,52,54,56,-1,58,60,62,-1,-1,64,66,68,70,72,-1,-1,-1,-1,74,-1,76,78,80,82,84,86,-1,-1,88,-1,-1,-1,-1,-1,-1,90,92,-1,94,96,98,100,-1,102,-1,-1,104,106,108,110,-1,112,114,116,118,120,122,124,126,128,-1,130,-1,-1,132,-1,134,136,138,140,-1,-1,-1,142,144,-1,146,-1,-1,-1,-1,148,-1,-1,150,152,154,156,158,160,162,164,-1,166,168,170,-1,172,174,176,-1,178,-1,-1,180,182,-1,184,-1,-1,186,-1,188,190,-1,-1,192,-1,-1,-1,-1,-1,-1,-1,-1,-1,-1,194,196,198,200,202,-1,204,206,208,210,-1,212,214,216,-1,-1,-1,218,-1,-1,-1,-1,-1,220,-1,-1,-1,222,224,-1,-1,-1,-1,226,228,230,-1,232,-1,-1,234,-1,-1,-1,236,238,240,242,244,-1,246,248,250,-1,-1,-1,252,-1,254,256,258,-1,-1,-1,-1,-1,-1,-1,-1,-1,-1,-1,-1,-1,-1,-1,-1,-1,-1,-1,-1,-1,-1,-1,-1,-1,-1,-1,-1,-1,-1,-1,-1,-1,-1,-1,-1,-1,-1,-1,-1,-1,-1],"split_conditions":[4E0,2.30196E-1,1.0211641E0,9.600521E1,1.7039073E2,5.9908264E1,1.1610771E2,1.2727922E1,2.5079872E1,7.792946E1,5.141984E1,4.381914E-1,1.6169725E2,1.20415945E1,2.3384045E-1,3.486285E-2,1.1245353E-1,-1.0119715E-1,2E0,1.7029387E1,6.675328E1,4.5607018E1,4.360046E1,4.6010868E1,-5.8992073E-2,1.2762445E2,1.4165099E2,8.246211E0,3.0066593E1,1.5115886E2,2.7294687E1,1.0198039E1,1.0546973E-1,2.6172504E1,1.7720045E1,1.8867962E1,-3.8635477E-2,8.260557E-2,1.8384777E1,7.218033E1,3.2202484E1,2.2825424E1,1.5E1,1.1756813E-2,-1.04746275E-1,9.4886884E-2,-2.3650086E-2,2.5E1,-9.404691E-2,6.688796E1,3.238827E1,1.3152946E1,5.6435802E1,1.8248287E1,6.842514E1,6.490644E-2,-8.702857E-2,6E0,-1.1820366E-1,-5.001046E-2,9.17849E-2,-2.574135E-2,1.1179854E-1,4.4529345E-2,2.4596748E1,1.8006943E2,1.0197086E-1,5.3600372E1,4.8270073E1,2.2803509E1,4.2201897E1,5.360883E-3,3.863936E1,-5.0475076E-2,9.451658E-2,6.5802734E1,1.13216606E2,4.3185646E1,5.5027267E1,1.8733975E-2,1.455232E2,5.390733E1,5.7245087E1,1.4583553E2,4.9819675E1,5.635601E1,1.7751274E0,1.5033297E1,4.0311287E1,-1.3576032E-5,2.1400934E1,1.5463635E-2,-7.948437E-2,2.6925823E1,1.4540621E-2,6.363961E1,3.0805843E1,2.0819034E-1,4.8414875E1,-1.2118847E-1,7.033061E-2,2.7751388E-2,9.035486E1,1.3892444E1,-8.9501314E-2,1.029563E1,-3.128049E-2,-9.54864E-2,4.8534226E-2,1.0901235E-1,2.5495098E1,-1.2092897E-1,-1.2535365E-2,1.2206556E2,6.103278E1,4.579301E1,4.7010635E1,2.433105E1,2.5942244E1,5.57315E1,9.5524864E1,-6.607492E-2,1.5033297E1,4.9365982E1,1.8748067E2,5.4570325E-2,7.071068E0,9.7015465E1,2.9832869E1,-4.5042027E-2,2.523886E1,-1.236016E-2,-1.3336673E-1,6.708204E1,3.8626415E1,-1.2454879E-1,2.8284271E1,1.1610137E-2,1.12482205E-1,6.0207973E1,1.0896507E-1,1.0169492E0,4.1E1,4.682066E-3,9.692497E-2,2.1023796E1,1.002508E-2,-7.4507356E-2,9.3516506E-2,9.439414E-2,-8.713838E-2,3.584281E-2,1.2238053E-1,4.4341657E-2,-1.01613164E-1,1.1883913E-1,1.1655629E0,6.2201286E1,1.355913E2,5.4405884E1,1.7492855E1,5.3971995E-2,1.0432099E0,3.748333E1,3.8209946E1,2.745906E1,1.272498E-1,4.2059483E1,8.261961E1,8.487638E1,-1.04703754E-1,-1.1943235E-1,-1.2374321E-2,1.2649111E1,-1.0633114E-1,1.0020208E-1,-3.0183678E-3,-4.5332067E-2,-1.3435979E-1,1.6918924E2,8.050081E-2,1.1893606E-2,1.199633E-1,1.1496599E0,4.1E1,-1.0567044E-1,-1.7036688E-2,1.2649639E-1,3.967717E-2,4.9819675E1,1.036195E2,7.2111025E0,2.0817466E-2,6.537584E1,-8.0084085E-2,6.514069E-2,9.908077E1,9.623742E-2,-4.7350626E-2,-5.0034072E-2,1.2826924E2,1.5E1,1.01133575E2,3.40147E1,1.421267E1,-5.0320506E-2,8.22253E1,1.3453624E1,8.448077E1,1.0532811E-1,-8.728594E-2,4.1688986E-2,3.1E1,1.24576785E-1,3.1589955E-1,4.9118735E2,7.930952E1,-7.5284526E-2,1.0636738E-1,-1.4082837E-2,-1.07446395E-1,7.6389327E-3,1.0633282E-1,-8.905517E-2,-1.7337263E-2,7.652638E-2,-7.323204E-2,1.3274259E-2,1.11287795E-1,4.166718E-2,1.1941744E-1,-2.918918E-2,1.0549216E-1,-2.1375226E-2,-1.189739E-1,1.2569495E-1,-3.1246342E-2,-2.2945723E-2,1.09140605E-1,-1.00370675E-1,2.641754E-2,-8.078444E-2,8.69503E-2,-1.2516079E-2,-1.1739929E-1,1.2805624E-1,1.2030714E-2,-1.2804455E-2,-1.22540355E-1,1.0101112E-1,-3.7263725E-2,9.808142E-3,-1.3116877E-1,1.8384285E-2,-6.623268E-2,3.447064E-2,-1.0489612E-1,1.076078E-2,1.1980621E-1],"split_indices":[2262,2279,2278,1819,283,2158,1079,16,567,93,1559,2280,2127,2218,2279,0,0,0,2262,1649,324,1724,667,833,0,2145,961,2047,2106,544,2174,2168,0,1743,1766,1166,0,0,734,1757,1308,2208,1575,0,0,0,0,833,0,1045,2106,1665,2101,2209,554,0,0,2141,0,0,0,0,0,0,1215,576,0,724,1704,1435,1614,0,979,0,0,48,1361,497,611,0,340,178,438,1098,378,178,2281,1197,1598,0,2163,0,0,1667,0,610,1579,2279,2113,0,0,0,1617,1508,0,2142,0,0,0,0,1650,0,0,321,488,82,2268,847,2160,550,1616,0,2183,2132,388,0,2261,537,1737,0,1736,0,0,1249,1705,0,2272,0,0,560,0,2278,1119,0,0,1785,0,0,0,0,0,0,0,0,0,0,2278,1480,339,1157,2004,0,2278,1743,1815,1307,0,2161,1609,1118,0,0,0,2206,0,0,0,0,0,206,0,0,0,2278,1307,0,0,0,0,613,179,1872,0,1955,0,0,1142,0,0,0,773,2232,1209,1197,2221,0,1568,2117,725,0,0,0,2239,0,2280,15,1768,0,0,0,0,0,0,0,0,0,0,0,0,0,0,0,0,0,0,0,0,0,0,0,0,0,0,0,0,0,0,0,0,0,0,0,0,0,0,0,0,0,0],"split_type":[0,0,0,0,0,0,0,0,0,0,0,0,0,0,0,0,0,0,0,0,0,0,0,0,0,0,0,0,0,0,0,0,0,0,0,0,0,0,0,0,0,0,0,0,0,0,0,0,0,0,0,0,0,0,0,0,0,0,0,0,0,0,0,0,0,0,0,0,0,0,0,0,0,0,0,0,0,0,0,0,0,0,0,0,0,0,0,0,0,0,0,0,0,0,0,0,0,0,0,0,0,0,0,0,0,0,0,0,0,0,0,0,0,0,0,0,0,0,0,0,0,0,0,0,0,0,0,0,0,0,0,0,0,0,0,0,0,0,0,0,0,0,0,0,0,0,0,0,0,0,0,0,0,0,0,0,0,0,0,0,0,0,0,0,0,0,0,0,0,0,0,0,0,0,0,0,0,0,0,0,0,0,0,0,0,0,0,0,0,0,0,0,0,0,0,0,0,0,0,0,0,0,0,0,0,0,0,0,0,0,0,0,0,0,0,0,0,0,0,0,0,0,0,0,0,0,0,0,0,0,0,0,0,0,0,0,0,0,0,0,0,0,0,0,0,0,0,0,0,0,0,0,0,0,0,0,0,0,0],"sum_hessian":[6.441372E2,2.1291518E2,4.3122202E2,1.7094862E1,1.9582033E2,8.3445E1,3.47777E2,7.1430345E0,9.951827E0,4.9641647E1,1.4617868E2,7.655349E1,6.891505E0,6.658198E1,2.8119504E2,1.1905057E0,5.952529E0,2.461376E0,7.490451E0,3.854813E1,1.109352E1,4.8733135E1,9.744554E1,7.505774E1,1.4957532E0,3.4613025E0,3.430202E0,5.164227E0,6.1417747E1,5.407018E1,2.2712486E2,3.4399393E0,4.050512E0,3.321266E1,5.335465E0,9.143208E0,1.9503124E0,1.4655284E0,4.726761E1,6.148278E0,9.129726E1,2.7494394E1,4.7563347E1,1.2214047E0,2.2398977E0,2.191233E0,1.2389692E0,3.429479E0,1.7347481E0,4.7827713E1,1.3590034E1,7.4029584E0,4.666722E1,1.18473885E2,1.0865098E2,1.9545687E0,1.4853704E0,2.782927E1,5.383394E0,1.2482111E0,4.0872536E0,1.2248996E0,7.9183083E0,1.2213955E0,4.604621E1,2.4469755E0,3.701303E0,1.9881527E1,7.141573E1,2.3082829E1,4.4115653E0,1.2092805E0,4.6354065E1,1.2415901E0,2.1878886E0,7.7665606E0,4.0061153E1,4.435607E0,9.154427E0,1.2331762E0,6.169782E0,1.9319347E1,2.7347874E1,5.910617E1,5.936771E1,1.5713671E1,9.293731E1,1.1071922E1,1.6757347E1,1.4937652E0,4.4552444E1,1.2148083E0,1.232167E0,1.8642183E1,1.239343E0,1.1291798E1,6.0123936E1,1.5106308E1,7.976521E0,3.2291663E0,1.182399E0,1.678637E0,4.4675426E1,5.5473247E0,2.219236E0,3.8561237E1,1.4999155E0,3.2005832E0,1.2350236E0,4.9896693E0,4.1647573E0,4.9391565E0,1.2306254E0,3.886005E0,1.5433342E1,5.427612E0,2.1920261E1,2.140285E1,3.7703323E1,3.3467243E1,2.5900469E1,1.7320482E0,1.3981623E1,5.955101E1,3.33863E1,1.245413E0,9.826509E0,1.0259298E1,6.498049E0,1.9841375E0,4.256831E1,1.959326E0,1.6682858E1,5.4104543E0,5.881344E0,1.0839755E1,4.928418E1,1.9346129E0,1.3171695E1,3.207238E0,4.7692833E0,1.8183422E1,2.6492006E1,1.2150781E0,4.3322463E0,3.6624683E1,1.9365542E0,1.9864174E0,2.17834E0,2.400934E0,1.4850711E0,1.1904099E0,1.4242932E1,1.2284666E0,4.1991453E0,8.601241E0,1.331902E1,1.8199709E1,3.2031403E0,1.2651452E1,2.505187E1,2.2135303E0,3.1253712E1,7.4574175E0,1.844305E1,5.1715617E0,8.810061E0,1.393371E1,4.5617302E1,3.1144138E1,2.24216E0,7.632365E0,2.1941445E0,5.5939755E0,4.665323E0,5.0278254E0,1.4702234E0,2.1935313E0,4.037478E1,4.1825933E0,1.2278609E0,1.2151355E0,4.6662083E0,6.8600345E0,4.2424145E1,1.979721E0,1.2275171E0,1.698662E1,1.1968019E0,3.65773E0,2.2834276E1,3.4431324E1,2.1933587E0,1.1343508E1,1.9755124E0,1.7252083E0,1.64745E1,1.9726663E0,1.230474E0,1.2412541E0,1.1410197E1,6.9284124E0,1.8123459E1,2.4795017E0,2.877421E1,1.245583E0,6.2118344E0,1.4959269E1,3.4837825E0,2.9318006E0,2.239761E0,1.7414994E0,1.219221E1,4.7227864E0,4.0894516E1,2.0181578E1,1.0962561E1,1.9784555E0,3.61552E0,1.224796E0,2.9577973E0,3.6945703E0,3.165464E0,2.1124544E1,2.12996E1,1.2194448E0,2.4382854E0,1.4375738E0,2.1396702E1,2.6705694E0,3.1760756E1,2.4449055E0,8.8986025E0,3.1819723E0,1.3292529E1,9.9231415E0,1.4870558E0,2.4713078E0,4.4571047E0,9.196181E0,8.927277E0,1.2359328E0,1.243569E0,1.23606E0,2.753815E1,4.9728885E0,1.2389458E0,3.4915314E0,1.1467737E1,1.9912184E0,1.4925641E0,1.7399435E0,1.0452267E1,1.9268894E1,2.1625622E1,1.6457764E1,3.723814E0,1.2324888E0,9.730072E0],"tree_param":{"num_deleted":"0","num_feature":"2282","num_nodes":"259","size_leaf_vector":"1"}},{"base_weights":[2.0515923E-3,-5.323309E-1,2.6617017E-1,6.663426E-1,-6.392765E-1,8.695971E-1,1.20400526E-1,1.0792843E-1,2.2107588E-1,-6.179553E-2,-8.335354E-1,9.287692E-1,-5.4719144E-1,8.177552E-1,-4.548518E-2,-8.391527E-1,7.333537E-1,-3.2420266E-1,8.014916E-1,-1.1051542E0,-4.034532E-1,9.687962E-1,-5.6303807E-2,2.204122E-2,-9.1125555E-2,-1.3804302E-1,8.998254E-1,7.038398E-1,-1.7556128E-1,-9.880362E-2,9.807953E-3,1.0970933E0,-2.738418E-2,-4.968879E-1,6.59368E-1,-4.161115E-2,1.0796343E0,-1.1530213E0,8.336432E-2,7.536398E-1,-5.733156E-1,9.996864E-1,-3.0767143E-2,7.863116E-2,-6.9210076E-1,1.0451127E0,3.5423973E-1,-7.1062785E-1,9.77162E-1,-2.714375E-1,5.204423E-1,2.8542355E-3,1.0561079E-1,-1.0451474E-1,-9.9598E-1,-4.7858525E-2,8.732959E-2,1.2892121E0,-6.7410627E-3,7.730733E-2,-1.1944826E0,-2.9406458E-2,1.0689491E0,-9.097448E-1,-1.0892095E-1,6.378267E-1,1.182641E0,2.2524241E-2,-9.785877E-2,3.1836995E-1,1.1764859E0,-6.318923E-1,8.529615E-1,5.3376257E-2,-1.1655045E0,1.2982359E0,6.176916E-1,-1.235102E0,-2.0873322E-1,9.3700194E-1,2.2171985E-2,-9.91679E-1,4.5700434E-1,4.6782646E-2,-1.1777558E0,1.1005692E-1,3.1468578E-2,-1.2789068E0,-2.395472E-2,1.0884286E-1,1.43362265E-2,7.233765E-2,-1.0716543E0,8.269394E-1,-6.8188876E-1,9.329956E-1,-7.778131E-1,1.2208749E0,4.8238207E-3,9.538663E-1,-8.45651E-2,1.2462995E0,-2.9787928E-2,4.9059656E-2,-9.1654286E-2,1.04159236E-1,1.7200239E-1,-1.103822E-1,-1.4505996E-2,1.6028517E-1,1.1731503E-1,-8.238295E-2,9.6214247E-1,1.7076662E-2,-1.4107802E0,1.7431124E-1,-3.6758974E-1,1.2233927E0,4.456062E-2,-1.0693921E-1,4.9061865E-1,5.09366E-3,-1.2394887E0,1.1959995E0,-3.4527928E-1,-1.4411088E0,2.2976683E-2,2.2972401E-2,-1.3069711E0,6.6999114E-1,-9.2175834E-2,1.8775965E-1,-1.2878817E0,-5.2897714E-2,1.1455826E0,-1.03838E-1,-2.073799E-1,1.1964599E0,3.577922E-1,-1.1426434E-1,6.794753E-2,2.4168722E-3,1.2503427E0,9.270721E-2,1.8384415E-3,1.2997304E0,5.6570345E-3,-7.1984865E-2,9.0437E-2,-5.064933E-2,7.1441345E-2,1.2872069E0,2.5195915E-1,-1.2391641E-1,-1.0747733E-2,-6.062746E-1,3.8472426E-1,-1.0147756E0,-2.3442587E-1,3.6616087E-1,1.3976094E0,-7.42531E-2,6.972318E-2,8.9071107E-1,-6.3947216E-2,-1.139286E-1,-1.7597513E-2,1.50257E-2,1.1000041E-1,6.911784E-2,-7.3817164E-1,-1.2437632E-1,-1.923254E-2,-1.3414274E0,2.5726429E-3,-4.3440938E-2,9.7420506E-2,-8.1781894E-2,7.975716E-2,-1.3821161E0,1.8353121E-2,7.99116E-3,1.1412643E-1,7.415008E-1,-1.1124072E0,1.0245882E-2,1.3358155E0,-9.999609E-1,1.04205474E-1,2.6120666E-2,1.2771307E0,7.309416E-1,1.3931913E0,3.9860833E-2,1.1420839E-1,-5.3138673E-1,8.787463E-2,7.174387E-1,-1.1121715E0,1.0988607E0,1.3338196E-1,2.490644E-1,-1.2570665E0,9.726141E-1,-3.5846457E-1,7.034673E-2,-2.4625944E-2,3.482728E-2,1.1851146E-1,-2.4834858E-2,1.1144757E0,-1.0522183E-1,4.8929334E-2,1.6128255E-2,-1.09528504E-1,9.481943E-3,-1.194295E-1,-1.8182142E-2,8.836668E-2,-1.08875185E-1,-1.403504E-2,1.16292305E-1,4.71987E-2,-1.0132696E-1,-1.52969705E-2,1.0332299E-1,3.1480793E-2,1.022655E-1,-3.2364257E-2,6.022642E-2,1.1778656E-1,3.8997203E-2,-9.177988E-2,-1.7400345E-2,9.409615E-2,1.2718843E-2,-1.1180724E-1,-5.7221707E-2,1.12956636E-1,-3.863706E-2,5.0663367E-2,-5.3725503E-2,9.304799E-2,4.4653933E-3,-1.0908536E-1,-3.5879765E-2,9.835987E-2,-5.708421E-2,-1.0441578E-2,1.1192439E-1,-5.93678E-3],"categories":[],"categories_nodes":[],"categories_segments":[],"categories_sizes":[],"default_left":[0,0,0,0,0,0,0,0,0,0,0,0,0,0,0,0,0,0,0,0,0,0,0,0,0,0,0,0,0,0,0,0,0,0,0,0,0,0,0,0,0,0,0,0,0,0,0,0,0,0,0,0,0,0,0,0,0,0,0,0,0,0,0,0,0,0,0,0,0,0,0,0,0,0,0,0,0,0,0,0,0,0,0,0,0,0,0,0,0,0,0,0,0,0,0,0,0,0,0,0,0,0,0,0,0,0,0,0,0,0,0,0,0,0,0,0,0,0,0,0,0,0,0,0,0,0,0,0,0,0,0,0,0,0,0,0,0,0,0,0,0,0,0,0,0,0,0,0,0,0,0,0,0,0,0,0,0,0,0,0,0,0,0,0,0,0,0,0,0,0,0,0,0,0,0,0,0,0,0,0,0,0,0,0,0,0,0,0,0,0,0,0,0,0,0,0,0,0,0,0,0,0,0,0,0,0,0,0,0,0,0,0,0,0,0,0,0,0,0,0,0,0,0,0,0,0,0,0,0,0,0,0,0,0,0,0,0,0,0,0,0,0,0,0,0,0,0,0,0,0,0],"id":4,"left_children":[1,3,5,7,9,11,13,-1,15,17,19,21,23,25,27,29,31,33,35,37,39,41,-1,-1,-1,43,45,47,49,-1,-1,51,-1,53,55,-1,57,59,-1,61,63,65,-1,-1,67,69,71,73,75,77,79,-1,-1,81,83,-1,-1,85,-1,-1,87,-1,89,91,93,95,97,-1,-1,99,101,103,105,-1,107,109,111,113,115,117,119,121,123,-1,125,-1,-1,127,129,-1,-1,-1,131,133,135,137,139,141,-1,143,-1,145,-1,-1,-1,-1,147,-1,-1,149,-1,-1,151,-1,153,155,157,159,161,-1,163,-1,165,167,169,171,-1,-1,173,175,-1,177,179,-1,181,-1,183,185,187,-1,-1,-1,189,-1,-1,191,-1,-1,-1,-1,-1,193,195,-1,-1,197,199,201,203,205,207,-1,-1,209,-1,-1,-1,-1,-1,-1,211,-1,-1,213,-1,-1,-1,-1,-1,215,-1,-1,-1,217,219,-1,221,223,-1,-1,225,227,229,-1,-1,231,-1,233,235,237,239,241,243,245,247,-1,-1,-1,-1,-1,249,-1,-1,-1,-1,-1,-1,-1,-1,-1,-1,-1,-1,-1,-1,-1,-1,-1,-1,-1,-1,-1,-1,-1,-1,-1,-1,-1,-1,-1,-1,-1,-1,-1,-1,-1,-1,-1,-1,-1,-1],"loss_changes":[8.990746E1,2.7436604E1,3.7393272E1,5.0975556E0,2.1706436E1,7.44833E0,3.989132E1,0E0,7.099704E0,1.156414E1,1.649897E1,5.898834E0,2.2363315E0,5.321598E0,2.7342806E1,1.8098361E0,3.7337432E0,6.948485E0,4.9435077E0,1.0280144E1,1.1777328E1,3.6598206E0,0E0,0E0,0E0,4.472665E0,4.477009E0,1.6740911E1,1.6073338E1,0E0,0E0,1.5276756E0,0E0,6.5011683E0,4.051356E0,0E0,2.5900965E0,8.788414E0,0E0,3.1579347E0,7.853607E0,4.335144E0,0E0,0E0,2.7611413E0,4.1870613E0,7.607447E0,5.3531713E0,3.261406E0,1.2462079E1,6.0502663E0,0E0,0E0,1.041685E1,4.9209156E0,0E0,0E0,1.3163471E-1,0E0,0E0,8.434235E0,0E0,1.4062972E0,9.598387E0,1.2639543E1,1.2419863E1,2.0671997E0,0E0,0E0,8.600273E0,4.799282E0,4.1582804E0,2.8248053E0,0E0,9.840226E-1,3.1506042E0,1.1498924E1,3.5221024E0,1.2163728E1,4.011072E0,9.786147E0,2.1888957E0,8.080698E0,0E0,5.6382046E0,0E0,0E0,3.8859253E0,6.0815415E0,0E0,0E0,0E0,7.7120266E0,5.027008E0,3.9744916E0,3.1502762E0,6.901118E0,1.6531677E0,0E0,1.2072158E0,0E0,2.3322563E0,0E0,0E0,0E0,0E0,6.271105E0,0E0,0E0,2.5423028E0,0E0,0E0,3.3306303E0,0E0,1.8059673E0,9.918743E0,1.1903156E1,1.2810612E0,4.7524405E0,0E0,6.5942726E0,0E0,9.257345E-1,9.970989E-1,3.952543E0,1.2144394E0,0E0,0E0,3.672226E0,3.8713484E0,0E0,5.8096066E0,3.6827736E0,0E0,2.144103E0,0E0,8.889085E0,2.1765537E0,1.264785E1,0E0,0E0,0E0,7.462616E-1,0E0,0E0,9.410248E-1,0E0,0E0,0E0,0E0,0E0,4.647522E-1,4.7045116E0,0E0,0E0,9.44252E0,8.300493E0,7.582611E0,1.8036146E1,1.4406338E0,1.3083458E-1,0E0,0E0,2.8112545E0,0E0,0E0,0E0,0E0,0E0,0E0,5.3265243E0,0E0,0E0,3.55188E0,0E0,0E0,0E0,0E0,0E0,3.8840752E0,0E0,0E0,0E0,2.0745811E0,9.736142E-1,0E0,3.589611E-1,6.623416E-1,0E0,0E0,6.890106E-2,5.0577717E0,4.3995285E-1,0E0,0E0,3.007413E0,0E0,2.047525E0,3.7529593E0,7.8901863E0,1.1381934E1,4.6971025E0,2.884613E0,4.6686335E0,8.637051E0,0E0,0E0,0E0,0E0,0E0,2.7930346E0,0E0,0E0,0E0,0E0,0E0,0E0,0E0,0E0,0E0,0E0,0E0,0E0,0E0,0E0,0E0,0E0,0E0,0E0,0E0,0E0,0E0,0E0,0E0,0E0,0E0,0E0,0E0,0E0,0E0,0E0,0E0,0E0,0E0,0E0,0E0,0E0,0E0,0E0,0E0,0E0],"parents":[2147483647,0,0,1,1,2,2,3,3,4,4,5,5,6,6,8,8,9,9,10,10,11,11,12,12,13,13,14,14,15,15,16,16,17,17,18,18,19,19,20,20,21,21,25,25,26,26,27,27,28,28,31,31,33,33,34,34,36,36,37,37,39,39,40,40,41,41,44,44,45,45,46,46,47,47,48,48,49,49,50,50,53,53,54,54,57,57,60,60,62,62,63,63,64,64,65,65,66,66,69,69,70,70,71,71,72,72,74,74,75,75,76,76,77,77,78,78,79,79,80,80,81,81,82,82,84,84,87,87,88,88,92,92,93,93,94,94,95,95,96,96,97,97,99,99,101,101,106,106,109,109,112,112,114,114,115,115,116,116,117,117,118,118,120,120,122,122,123,123,124,124,125,125,128,128,129,129,131,131,132,132,134,134,136,136,137,137,138,138,142,142,145,145,151,151,152,152,155,155,156,156,157,157,158,158,159,159,160,160,163,163,170,170,173,173,179,179,183,183,184,184,186,186,187,187,190,190,191,191,192,192,195,195,197,197,198,198,199,199,200,200,201,201,202,202,203,203,204,204,210,210],"right_children":[2,4,6,8,10,12,14,-1,16,18,20,22,24,26,28,30,32,34,36,38,40,42,-1,-1,-1,44,46,48,50,-1,-1,52,-1,54,56,-1,58,60,-1,62,64,66,-1,-1,68,70,72,74,76,78,80,-1,-1,82,84,-1,-1,86,-1,-1,88,-1,90,92,94,96,98,-1,-1,100,102,104,106,-1,108,110,112,114,116,118,120,122,124,-1,126,-1,-1,128,130,-1,-1,-1,132,134,136,138,140,142,-1,144,-1,146,-1,-1,-1,-1,148,-1,-1,150,-1,-1,152,-1,154,156,158,160,162,-1,164,-1,166,168,170,172,-1,-1,174,176,-1,178,180,-1,182,-1,184,186,188,-1,-1,-1,190,-1,-1,192,-1,-1,-1,-1,-1,194,196,-1,-1,198,200,202,204,206,208,-1,-1,210,-1,-1,-1,-1,-1,-1,212,-1,-1,214,-1,-1,-1,-1,-1,216,-1,-1,-1,218,220,-1,222,224,-1,-1,226,228,230,-1,-1,232,-1,234,236,238,240,242,244,246,248,-1,-1,-1,-1,-1,250,-1,-1,-1,-1,-1,-1,-1,-1,-1,-1,-1,-1,-1,-1,-1,-1,-1,-1,-1,-1,-1,-1,-1,-1,-1,-1,-1,-1,-1,-1,-1,-1,-1,-1,-1,-1,-1,-1,-1,-1],"split_conditions":[4E0,2.30196E-1,1.0211641E0,1.0440307E1,1.7039073E2,5.2351984E2,1.1610771E2,1.0792843E-1,2.5079872E1,7.792946E1,3.4713108E1,4.381914E-1,1.7062825E2,1.20415945E1,2.193419E-1,1.104355E2,7.877182E1,1.7029387E1,1.720465E1,6.6730804E1,1.7E1,1.0652699E2,-5.6303807E-2,2.204122E-2,-9.1125555E-2,3.7161808E1,3.0066593E1,2.0615528E1,3.0265491E1,-9.880362E-2,9.807953E-3,7.404053E1,-2.738418E-2,5.59017E1,1.7720045E1,-4.161115E-2,1.4142136E1,9.638464E1,8.336432E-2,2.801785E1,5.0635956E1,4.6010868E1,-3.0767143E-2,7.863116E-2,5.0990195E0,6.688796E1,3.238827E1,4.9648766E1,9.244458E1,1.7902513E2,1.489765E2,2.8542355E-3,1.0561079E-1,1.6124516E1,2.2671568E1,-4.7858525E-2,8.732959E-2,1.1183023E2,-6.7410627E-3,7.730733E-2,4.2231566E-1,-2.9406458E-2,6.537584E1,2.2803509E1,3.206244E1,2.2825424E1,2.5565015E2,2.2524241E-2,-9.785877E-2,6.5802734E1,1.13216606E2,2.0248457E1,5.5027267E1,5.3376257E-2,2.9017237E1,5.2478565E1,9.128527E1,5.092151E1,1.8248287E1,4.4181442E1,2.0380627E2,1.5556349E1,8.944272E0,4.6782646E-2,2.184033E1,1.1005692E-1,3.1468578E-2,2.2803509E1,1.6970562E1,1.0884286E-1,1.43362265E-2,7.233765E-2,6.307139E1,2.956615E-1,2.0615528E1,2.2803509E1,4.2201897E1,5.0990195E0,4.8238207E-3,6.8593E1,-8.45651E-2,4.14367E1,-2.9787928E-2,4.9059656E-2,-9.1654286E-2,1.04159236E-1,3.4058773E1,-1.103822E-1,-1.4505996E-2,7.877182E1,1.1731503E-1,-8.238295E-2,1.1306819E0,1.7076662E-2,3.8327538E1,1.0575916E2,6.3788715E1,5.3037724E1,7.4793045E1,-1.0693921E-1,1.8677527E2,5.09366E-3,7.2835434E1,7.071068E0,1.7888544E1,2.596151E1,2.2976683E-2,2.2972401E-2,1.1642802E1,1.0340696E2,-9.2175834E-2,5.5362442E1,3.4828148E1,-5.2897714E-2,5.0606323E1,-1.03838E-1,7.000714E1,4.472136E0,2.1023796E1,-1.1426434E-1,6.794753E-2,2.4168722E-3,2.4186773E1,9.270721E-2,1.8384415E-3,1.3038404E1,5.6570345E-3,-7.1984865E-2,9.0437E-2,-5.064933E-2,7.1441345E-2,1.0480769E0,2.184033E1,-1.2391641E-1,-1.0747733E-2,3.1780497E1,3.2280025E1,3.2E1,2.2203604E1,2.3940968E2,6.539113E1,-7.42531E-2,6.972318E-2,9.047099E1,-6.3947216E-2,-1.139286E-1,-1.7597513E-2,1.50257E-2,1.1000041E-1,6.911784E-2,5.830952E1,-1.2437632E-1,-1.923254E-2,8.4118965E1,2.5726429E-3,-4.3440938E-2,9.7420506E-2,-8.1781894E-2,7.975716E-2,9.055386E0,1.8353121E-2,7.99116E-3,1.1412643E-1,5.9816387E1,5.606157E2,1.0245882E-2,1.0063695E0,5.5713554E1,1.04205474E-1,2.6120666E-2,4.1717753E-1,1.1016351E2,2.2803509E1,3.9860833E-2,1.1420839E-1,9.7637085E1,8.787463E-2,9.8478424E1,8.077747E1,1.4001428E2,1.3157507E2,3.1559613E-1,4.0311287E1,1E1,1.8093645E2,7.034673E-2,-2.4625944E-2,3.482728E-2,1.1851146E-1,-2.4834858E-2,1.4583553E2,-1.0522183E-1,4.8929334E-2,1.6128255E-2,-1.09528504E-1,9.481943E-3,-1.194295E-1,-1.8182142E-2,8.836668E-2,-1.08875185E-1,-1.403504E-2,1.16292305E-1,4.71987E-2,-1.0132696E-1,-1.52969705E-2,1.0332299E-1,3.1480793E-2,1.022655E-1,-3.2364257E-2,6.022642E-2,1.1778656E-1,3.8997203E-2,-9.177988E-2,-1.7400345E-2,9.409615E-2,1.2718843E-2,-1.1180724E-1,-5.7221707E-2,1.12956636E-1,-3.863706E-2,5.0663367E-2,-5.3725503E-2,9.304799E-2,4.4653933E-3,-1.0908536E-1,-3.5879765E-2,9.835987E-2,-5.708421E-2,-1.0441578E-2,1.1192439E-1,-5.93678E-3],"split_indices":[2262,2279,2278,1786,283,990,1079,0,567,93,1263,2280,555,2218,2279,47,498,1649,669,678,2217,2187,0,0,0,547,2106,1684,2269,0,0,1006,0,1661,1766,0,2243,1402,0,1166,1214,833,0,0,2262,1045,2106,1757,2204,15,500,0,0,1714,1165,0,0,41,0,0,2280,0,1151,1307,2126,2208,1199,0,0,48,1361,1814,611,0,2235,886,436,1432,2209,2269,569,668,2240,0,1119,0,0,1628,2116,0,0,0,1774,2279,2125,1435,1614,2152,0,512,0,499,0,0,0,0,1615,0,0,19,0,0,2278,0,2197,1403,1570,1549,2097,0,725,0,416,2174,1677,2109,0,0,2281,1270,0,488,1576,0,1702,0,2272,1816,2126,0,0,0,980,0,0,2174,0,0,0,0,0,2278,2231,0,0,1170,1539,498,1980,5,1605,0,0,2148,0,0,0,0,0,0,1479,0,0,1968,0,0,0,0,0,2168,0,0,0,1213,915,0,2278,886,0,0,2280,932,1628,0,0,437,0,347,474,799,1131,2279,1121,1816,1361,0,0,0,0,0,2089,0,0,0,0,0,0,0,0,0,0,0,0,0,0,0,0,0,0,0,0,0,0,0,0,0,0,0,0,0,0,0,0,0,0,0,0,0,0,0,0],"split_type":[0,0,0,0,0,0,0,0,0,0,0,0,0,0,0,0,0,0,0,0,0,0,0,0,0,0,0,0,0,0,0,0,0,0,0,0,0,0,0,0,0,0,0,0,0,0,0,0,0,0,0,0,0,0,0,0,0,0,0,0,0,0,0,0,0,0,0,0,0,0,0,0,0,0,0,0,0,0,0,0,0,0,0,0,0,0,0,0,0,0,0,0,0,0,0,0,0,0,0,0,0,0,0,0,0,0,0,0,0,0,0,0,0,0,0,0,0,0,0,0,0,0,0,0,0,0,0,0,0,0,0,0,0,0,0,0,0,0,0,0,0,0,0,0,0,0,0,0,0,0,0,0,0,0,0,0,0,0,0,0,0,0,0,0,0,0,0,0,0,0,0,0,0,0,0,0,0,0,0,0,0,0,0,0,0,0,0,0,0,0,0,0,0,0,0,0,0,0,0,0,0,0,0,0,0,0,0,0,0,0,0,0,0,0,0,0,0,0,0,0,0,0,0,0,0,0,0,0,0,0,0,0,0,0,0,0,0,0,0,0,0,0,0,0,0,0,0,0,0,0,0],"sum_hessian":[6.3500366E2,2.0970299E2,4.2530066E2,1.67487E1,1.9295428E2,8.1783745E1,3.4351694E2,5.8099537E0,1.0938745E1,4.890138E1,1.4405292E2,7.883563E1,2.94811E0,6.525723E1,2.782597E2,3.3556628E0,7.583082E0,3.7981018E1,1.0920359E1,8.7329956E1,5.6722958E1,7.734586E1,1.4897738E0,1.4571656E0,1.4909445E0,5.1063313E0,6.0150898E1,4.0506172E1,2.3775352E2,2.175844E0,1.1798189E0,5.651921E0,1.9311612E0,3.272952E1,5.2515006E0,1.7473853E0,9.172974E0,8.58785E1,1.4514544E0,6.8211203E0,4.9901836E1,7.58754E1,1.4704661E0,1.4330653E0,3.673266E0,4.6778416E1,1.3372484E1,6.300507E0,3.4205666E1,2.0950385E2,2.8249674E1,1.1828603E0,4.4690604E0,1.9000912E1,1.3728608E1,1.2450747E0,4.006426E0,7.6820364E0,1.4909376E0,1.219787E0,8.4658714E1,1.4608054E0,5.360315E0,2.838177E1,2.152007E1,2.6986326E1,4.888907E1,1.4623836E0,2.2108822E0,7.6856446E0,3.909277E1,4.4017653E0,8.970719E0,1.4479269E0,4.85258E0,1.6688347E1,1.751732E1,1.165701E1,1.9784685E2,1.490686E1,1.3342813E1,7.067945E0,1.1932966E1,1.1872199E0,1.25413885E1,6.5171313E0,1.1649048E0,7.887712E1,5.781594E0,3.638712E0,1.7216027E0,1.9500049E0,2.6431763E1,8.003784E0,1.3516284E1,2.2612442E1,4.3738847E0,4.7193577E1,1.6954902E0,5.4664564E0,2.2191877E0,3.7593575E1,1.4991966E0,1.2292213E0,3.172544E0,4.8563886E0,4.114331E0,3.6548896E0,1.1976907E0,2.400562E0,1.4287784E1,2.6850955E0,1.4832224E1,1.2375655E0,1.0419444E1,5.7969643E1,1.398772E2,1.1004576E1,3.9022849E0,2.9452906E0,1.0397522E1,1.485347E0,5.5825977E0,5.956033E0,5.976933E0,1.0644193E1,1.8971958E0,1.2260867E0,7.765103E1,3.8312688E0,1.950325E0,3.8923693E0,2.2539394E1,1.2219213E0,6.7818623E0,5.125762E0,8.390523E0,1.4768063E1,7.84438E0,3.2120194E0,1.1618652E0,1.1887016E0,4.6004875E1,4.2793074E0,1.1871494E0,3.5858204E1,1.735369E0,1.9711983E0,2.1431327E0,1.2178377E0,1.1827244E0,9.617577E0,5.2146473E0,9.209054E0,1.21039E0,1.1908899E1,4.606074E1,2.2739773E1,1.1713743E2,2.382628E0,8.621948E0,1.7369103E0,2.1653745E0,8.172311E0,2.2252116E0,4.3906746E0,1.1919231E0,1.2070504E0,4.748983E0,1.1716863E0,4.805247E0,9.454863E0,1.1893295E0,7.5701485E1,1.9495527E0,1.1945865E0,2.6366823E0,1.4543383E0,2.438031E0,2.1305285E1,1.2341092E0,1.7235187E0,5.058344E0,4.184231E0,4.2062917E0,1.9254453E0,1.2842617E1,3.1947472E0,4.6496325E0,1.668037E0,4.4336838E1,6.3053946E0,2.9552809E1,2.140161E0,7.4774156E0,2.9016397E0,2.3130078E0,3.1772523E0,8.7316475E0,1.1113132E1,3.494761E1,3.6536436E0,1.908613E1,1.0278131E1,1.068593E2,1.1797137E0,1.2029144E0,1.1868485E0,7.435099E0,1.2225347E0,6.949776E0,3.3839934E0,1.4212536E0,1.2232709E0,7.447821E1,1.4595115E0,1.9845774E1,1.242644E0,2.9415867E0,2.966841E0,1.2394508E0,1.0270831E1,2.5717857E0,1.9769008E0,1.2178464E0,4.317132E1,1.1655171E0,4.1696095E0,2.1357849E0,4.4069386E0,2.514587E1,1.1717073E0,1.7299324E0,1.218955E0,1.9582974E0,1.6822895E0,7.049358E0,1.4466314E0,9.666502E0,1.5666317E1,1.9281292E1,1.9524106E0,1.701233E0,1.4677957E0,1.7618334E1,1.4592875E0,8.818843E0,4.0945232E1,6.591406E1,5.4645505E0,1.4852257E0],"tree_param":{"num_deleted":"0","num_feature":"2282","num_nodes":"251","size_leaf_vector":"1"}},{"base_weights":[3.3330694E-3,-4.9842578E-1,2.5011522E-1,6.314346E-1,-5.991423E-1,9.1940075E-1,1.3325514E-1,1.2088783E0,1.4789644E-1,-5.639788E-2,-7.8195494E-1,9.70703E-1,-4.484566E-2,7.6787335E-1,-1.693639E-2,2.9230647E-2,1.0392061E-1,-9.318278E-2,6.703905E-1,-2.4766378E-1,1.0064809E0,-1.252415E0,-5.4065436E-1,7.0921594E-1,1.2362098E0,8.1982416E-1,-6.326001E-2,5.435452E-1,-1.518005E-1,-9.5461704E-2,9.76627E-2,2.2938998E-1,-5.653199E-1,-1.5300698E-2,1.04853705E-1,7.704606E-2,-1.3419001E0,6.1185014E-1,-6.253274E-1,8.9441776E-1,-9.178279E-2,1.2812035E0,7.896712E-3,4.6995345E-1,1.0917261E0,-1.1496336E0,7.4837303E-1,-4.1854158E-1,5.504338E-2,5.856603E-2,-8.250781E-2,-9.3442336E-2,4.5030043E-1,-3.2579917E-2,-1.0171896E0,4.1778922E-2,-1.4034231E0,-4.39574E-1,9.980294E-2,-1.2657313E0,-4.3442276E-1,1.0141551E0,-2.7497697E-1,1.3077267E0,2.8404988E-2,7.8077376E-1,-4.3954074E-1,1.3027867E0,4.9433437E-1,-1.07948385E-1,-1.2276391E-2,8.187389E-1,-5.326743E-2,4.4643012E-1,-5.4264086E-1,6.060732E-1,-1.2320146E-1,8.107101E-1,-2.5736868E-1,-1.0266113E0,5.945618E-1,3.8833056E-2,-1.1944451E0,9.712082E-4,-1.4521906E0,1.841816E-2,-7.2845794E-2,1.0158646E-2,-1.3790992E0,4.1633642E-1,-5.982895E-1,1.117123E0,-6.158971E-2,-8.822453E-2,6.5419905E-2,3.3288375E-2,1.0655725E-1,6.5217135E-3,1.1360819E0,-9.043425E-1,7.743268E-2,1.3638438E0,-1.3733609E-3,-5.3378034E-1,8.340224E-1,-4.103507E-2,8.630393E-1,-9.051373E-1,1.180699E0,-1.2397415E-2,-6.882728E-1,-2.6698193E-1,9.841508E-1,-6.710992E-1,1.1493199E-1,-4.5516755E-2,1.0382015E0,-9.3748575E-1,8.026638E-2,-5.202356E-3,-1.0327506E-1,9.5630996E-2,-4.4946307E-1,2.3932688E-2,-1.375892E0,-3.895557E-2,-1.4859506E0,-2.5615725E-3,-1.4689302E0,-4.8884153E-1,1.1974416E0,-1.4015008E0,-4.0000296E-1,1.791862E-2,1.1899331E0,4.508409E-2,-5.188757E-2,5.552768E-1,-8.582156E-2,1.2669383E0,7.0747742E-3,7.255863E-2,-1.2120182E-1,2.546164E-2,1.3984296E0,-7.985449E-2,1.4569027E-2,-7.1023353E-3,1.0983995E0,1.15484E0,6.0915637E-1,1.4281241E-2,-1.01048976E-1,-1.6187957E-2,1.12823576E-1,-9.261332E-1,6.345314E-1,1.2980315E-1,-8.524808E-1,7.6150274E-1,-6.978874E-1,1.2054291E0,-6.2432617E-2,-1.0062375E0,1.20058365E-1,3.0086243E-1,-1.015828E0,-2.8171966E-2,1.0591546E-1,-9.13011E-2,-1.4582735E-2,-8.32525E-2,3.9145954E-2,-1.229977E-1,3.0146712E-3,-3.8632963E-2,-1.2224978E-1,-3.2236464E-2,-1.2164881E-1,-1.0100089E0,7.485737E-2,8.508718E-3,1.1269375E-1,-3.3763926E-2,-1.17854774E-1,7.689067E-1,-5.883453E-1,1.2552774E0,5.9298235E-1,-8.972893E-2,9.0981536E-2,6.5398877E-3,1.3669302E0,1.1650924E-1,4.2836633E-2,1.0213369E-1,9.930333E-3,1.9501898E-1,1.3831788E0,-7.5662816E-1,9.645943E-1,-1.2232385E0,2.8295884E-2,1.0813555E0,-7.624026E-1,-7.3454976E-1,7.186984E-1,-1.238163E-1,-6.702238E-1,9.033371E-3,8.230136E-2,-1.1395581E0,7.793326E-2,1.5104164E0,6.069083E-1,6.9541276E-2,-1.2322487E0,9.996249E-2,-5.859458E-1,4.9916232E-1,-4.0294892E-1,-1.3325946E0,1.8982165E-2,-1.1719805E-2,-9.910194E-2,1.01889834E-1,1.1526896E-2,8.023672E-2,-5.5988982E-2,1.05020076E-1,4.072513E-2,-2.1545865E-2,8.131536E-2,7.65868E-2,-8.617833E-2,3.5126857E-2,1.13627076E-1,9.0556994E-2,-8.820735E-2,3.0680913E-2,1.1447035E-1,4.2729277E-2,-9.329841E-2,1.0690203E-1,4.103326E-2,-1.1258579E-1,-1.1046339E-2,-3.5221227E-2,1.1555147E-1,-8.147783E-2,-1.010845E-2,2.3188729E-2,-1.0798771E-1,9.265758E-2,-5.886863E-2,8.7535925E-2,-6.375523E-2,2.8168284E-3,-1.1666091E-1,3.913149E-2,1.2547994E-1,-1.5549973E-2,1.09213576E-1,-1.1005615E-1,4.3331902E-2,-9.4892986E-2,6.245642E-2,-6.8406127E-3,6.138726E-2,7.043226E-2,-6.497467E-2,-2.0536324E-2,-1.1830187E-1],"categories":[],"categories_nodes":[],"categories_segments":[],"categories_sizes":[],"default_left":[0,0,0,0,0,0,0,0,0,0,0,0,0,0,0,0,0,0,0,0,0,0,0,0,0,0,0,0,0,0,0,0,0,0,0,0,0,0,0,0,0,0,0,0,0,0,0,0,0,0,0,0,0,0,0,0,0,0,0,0,0,0,0,0,0,0,0,0,0,0,0,0,0,0,0,0,0,0,0,0,0,0,0,0,0,0,0,0,0,0,0,0,0,0,0,0,0,0,0,0,0,0,0,0,0,0,0,0,0,0,0,0,0,0,0,0,0,0,0,0,0,0,0,0,0,0,0,0,0,0,0,0,0,0,0,0,0,0,0,0,0,0,0,0,0,0,0,0,0,0,0,0,0,0,0,0,0,0,0,0,0,0,0,0,0,0,0,0,0,0,0,0,0,0,0,0,0,0,0,0,0,0,0,0,0,0,0,0,0,0,0,0,0,0,0,0,0,0,0,0,0,0,0,0,0,0,0,0,0,0,0,0,0,0,0,0,0,0,0,0,0,0,0,0,0,0,0,0,0,0,0,0,0,0,0,0,0,0,0,0,0,0,0,0,0,0,0,0,0,0,0,0,0,0,0,0,0,0,0,0,0,0,0,0,0,0,0,0,0,0,0,0,0],"id":5,"left_children":[1,3,5,7,9,11,13,15,17,19,21,23,-1,25,27,-1,-1,-1,29,31,33,35,37,39,41,43,-1,45,47,49,-1,51,53,-1,-1,-1,55,57,59,61,-1,63,-1,65,67,69,71,73,75,-1,-1,-1,77,79,81,-1,83,85,-1,87,89,91,93,95,-1,97,99,101,103,-1,-1,105,-1,107,109,111,113,115,117,119,121,-1,123,-1,125,-1,-1,-1,127,129,131,133,135,-1,-1,-1,-1,137,139,141,-1,143,-1,145,147,-1,149,151,153,155,157,159,161,163,165,-1,167,169,-1,-1,-1,-1,171,-1,173,-1,175,-1,177,179,181,183,185,-1,187,-1,-1,189,-1,191,-1,-1,-1,-1,193,-1,-1,-1,195,197,199,-1,-1,-1,-1,201,203,205,207,209,211,213,-1,215,217,219,221,-1,-1,-1,-1,-1,-1,-1,-1,-1,-1,-1,-1,223,-1,-1,-1,-1,-1,225,227,229,231,233,-1,-1,235,-1,-1,-1,-1,237,239,241,243,245,-1,247,249,251,253,-1,255,-1,-1,257,-1,259,261,-1,263,-1,265,267,269,271,-1,-1,-1,-1,-1,-1,-1,-1,-1,-1,-1,-1,-1,-1,-1,-1,-1,-1,-1,-1,-1,-1,-1,-1,-1,-1,-1,-1,-1,-1,-1,-1,-1,-1,-1,-1,-1,-1,-1,-1,-1,-1,-1,-1,-1,-1,-1,-1,-1,-1,-1],"loss_changes":[7.767058E1,2.3911255E1,3.2762314E1,4.683038E0,1.8846252E1,5.2766533E0,3.4242535E1,1.1806297E-1,8.062158E0,1.0220384E1,1.5481575E1,3.3311005E0,0E0,6.2149353E0,2.2107193E1,0E0,0E0,0E0,3.5849457E0,6.550459E0,3.0479631E0,1.0708649E1,9.735573E0,1.2331594E1,1.3438148E0,5.8627243E0,0E0,2.0535315E1,1.302438E1,4.138099E0,0E0,5.9737935E0,6.159153E0,0E0,0E0,0E0,6.0165787E0,5.270468E0,1.0426071E1,4.543949E0,0E0,2.1243286E-1,0E0,9.124754E0,4.015751E0,1.0894604E0,5.6416454E0,1.1302422E1,1.3197331E1,0E0,0E0,0E0,4.2793083E0,8.613733E0,4.2779455E0,0E0,3.1151123E0,1.2827197E0,0E0,3.3478165E0,1.0103198E1,3.1530628E0,4.172755E0,1.65596E-2,0E0,6.460787E0,6.469958E0,2.1750221E0,4.3775206E0,0E0,0E0,3.34729E0,0E0,1.4443127E1,6.984516E0,1.109751E1,1.3357016E1,3.9853044E0,6.2091236E0,1.2715893E0,5.872337E0,0E0,3.8557873E0,0E0,6.90155E-1,0E0,0E0,0E0,2.2117424E0,9.073663E0,8.944132E0,1.3894138E0,1.6058958E0,0E0,0E0,0E0,0E0,5.5717187E0,2.09659E0,9.057272E0,0E0,4.781189E-1,0E0,1.3141663E0,2.2575283E0,0E0,2.8542442E0,2.285418E0,3.1961126E0,1.2724209E1,9.652222E0,5.2760153E0,9.9675865E0,8.3356E0,1.540122E1,0E0,4.295491E0,4.8576665E-1,0E0,0E0,0E0,0E0,2.6368074E0,0E0,2.6870155E0,0E0,1.0145416E0,0E0,3.500557E-1,5.6009965E0,1.4022207E0,1.7979622E-1,1.1297682E1,0E0,1.650238E-1,0E0,0E0,2.4402332E0,0E0,1.5766296E0,0E0,0E0,0E0,0E0,4.4096756E-1,0E0,0E0,0E0,1.049819E0,4.3824196E0,1.422367E1,0E0,0E0,0E0,0E0,3.8234038E0,8.697948E0,7.013579E0,6.474861E0,5.146725E-1,7.0672207E0,2.9049187E0,0E0,1.0341366E1,8.79587E0,8.914682E0,4.4314985E0,0E0,0E0,0E0,0E0,0E0,0E0,0E0,0E0,0E0,0E0,0E0,0E0,8.2051563E-1,0E0,0E0,0E0,0E0,0E0,2.1089616E0,8.331298E0,1.9452095E-1,1.8057442E0,5.044426E0,0E0,0E0,2.4259567E-2,0E0,0E0,0E0,0E0,7.6230507E0,2.610855E-1,3.9539065E0,3.091238E0,1.2961884E0,0E0,6.1437693E0,4.647293E-1,3.9574618E0,6.0203495E0,0E0,1.1768562E1,0E0,0E0,2.612958E0,0E0,1.559639E-2,5.5748367E0,0E0,5.817091E0,0E0,6.5888634E0,7.773078E0,8.213351E0,9.456825E-1,0E0,0E0,0E0,0E0,0E0,0E0,0E0,0E0,0E0,0E0,0E0,0E0,0E0,0E0,0E0,0E0,0E0,0E0,0E0,0E0,0E0,0E0,0E0,0E0,0E0,0E0,0E0,0E0,0E0,0E0,0E0,0E0,0E0,0E0,0E0,0E0,0E0,0E0,0E0,0E0,0E0,0E0,0E0,0E0,0E0,0E0,0E0,0E0,0E0,0E0,0E0],"parents":[2147483647,0,0,1,1,2,2,3,3,4,4,5,5,6,6,7,7,8,8,9,9,10,10,11,11,13,13,14,14,18,18,19,19,20,20,21,21,22,22,23,23,24,24,25,25,27,27,28,28,29,29,31,31,32,32,36,36,37,37,38,38,39,39,41,41,43,43,44,44,45,45,46,46,47,47,48,48,52,52,53,53,54,54,56,56,57,57,59,59,60,60,61,61,62,62,63,63,65,65,66,66,67,67,68,68,71,71,73,73,74,74,75,75,76,76,77,77,78,78,79,79,80,80,82,82,84,84,88,88,89,89,90,90,91,91,92,92,97,97,98,98,99,99,101,101,103,103,104,104,106,106,107,107,108,108,109,109,110,110,111,111,112,112,113,113,114,114,116,116,117,117,122,122,124,124,126,126,128,128,129,129,130,130,131,131,132,132,134,134,137,137,139,139,144,144,148,148,149,149,150,150,155,155,156,156,157,157,158,158,159,159,160,160,161,161,163,163,164,164,165,165,166,166,179,179,185,185,186,186,187,187,188,188,189,189,192,192,197,197,198,198,199,199,200,200,201,201,203,203,204,204,205,205,206,206,208,208,211,211,213,213,214,214,216,216,218,218,219,219,220,220,221,221],"right_children":[2,4,6,8,10,12,14,16,18,20,22,24,-1,26,28,-1,-1,-1,30,32,34,36,38,40,42,44,-1,46,48,50,-1,52,54,-1,-1,-1,56,58,60,62,-1,64,-1,66,68,70,72,74,76,-1,-1,-1,78,80,82,-1,84,86,-1,88,90,92,94,96,-1,98,100,102,104,-1,-1,106,-1,108,110,112,114,116,118,120,122,-1,124,-1,126,-1,-1,-1,128,130,132,134,136,-1,-1,-1,-1,138,140,142,-1,144,-1,146,148,-1,150,152,154,156,158,160,162,164,166,-1,168,170,-1,-1,-1,-1,172,-1,174,-1,176,-1,178,180,182,184,186,-1,188,-1,-1,190,-1,192,-1,-1,-1,-1,194,-1,-1,-1,196,198,200,-1,-1,-1,-1,202,204,206,208,210,212,214,-1,216,218,220,222,-1,-1,-1,-1,-1,-1,-1,-1,-1,-1,-1,-1,224,-1,-1,-1,-1,-1,226,228,230,232,234,-1,-1,236,-1,-1,-1,-1,238,240,242,244,246,-1,248,250,252,254,-1,256,-1,-1,258,-1,260,262,-1,264,-1,266,268,270,272,-1,-1,-1,-1,-1,-1,-1,-1,-1,-1,-1,-1,-1,-1,-1,-1,-1,-1,-1,-1,-1,-1,-1,-1,-1,-1,-1,-1,-1,-1,-1,-1,-1,-1,-1,-1,-1,-1,-1,-1,-1,-1,-1,-1,-1,-1,-1,-1,-1,-1,-1],"split_conditions":[4E0,2.30196E-1,1.0056819E0,9.600521E1,1.7039073E2,2.0542882E2,1.1610771E2,1.3E1,2.5079872E1,1.4866069E1,5.141984E1,3.1622776E1,-4.484566E-2,1.2940247E2,2.3384045E-1,2.9230647E-2,1.0392061E-1,-9.318278E-2,2E0,-1.9091524E0,2.5495098E1,4.5607018E1,4.360046E1,1.6001562E2,1.4866069E2,3.206244E1,-6.326001E-2,1.7293062E2,2.5495098E1,1.0198039E1,9.76627E-2,2.5942244E1,5.866856E1,-1.5300698E-2,1.04853705E-1,7.704606E-2,1.8384777E1,7.218033E1,3.2202484E1,3.5468296E1,-9.178279E-2,4.0260994E-1,7.896712E-3,2.4698177E1,3.0083218E1,8.784646E1,8.6833176E1,2.801785E1,1.6532695E2,5.856603E-2,-8.250781E-2,-9.3442336E-2,6.17171E1,4.539824E1,5.375872E1,4.1778922E-2,2.4596748E1,1.5655351E2,9.980294E-2,4.86621E1,4.8270073E1,4.0967053E-1,1.4940215E2,3.8013157E1,2.8404988E-2,1.118034E1,7.510659E1,2.2203604E1,3.238827E1,-1.07948385E-1,-1.2276391E-2,1.4946571E2,-5.326743E-2,1.6635504E2,3.8470768E1,1.0863241E2,1.1268097E2,7.81025E0,4.3931767E1,6.3245554E0,1.2806249E1,3.8833056E-2,3.201562E1,9.712082E-4,2.1400934E1,1.841816E-2,-7.2845794E-2,1.0158646E-2,2.6832815E1,6.363961E1,3.0805843E1,4.472136E0,4.0012497E1,-8.822453E-2,6.5419905E-2,3.3288375E-2,1.0655725E-1,2.4596748E1,2.8600698E1,7.427651E1,7.743268E-2,2.1023796E1,-1.3733609E-3,8.909545E1,9.055386E0,-4.103507E-2,5.6435802E1,1.0530432E2,8.246211E0,4.632494E1,1.4142136E1,7.539231E1,6.315853E1,1.0440307E1,3.8371994E2,-4.5516755E-2,-1.1503862E1,3.255764E1,8.026638E-2,-5.202356E-3,-1.0327506E-1,9.5630996E-2,4.1109608E1,2.3932688E-2,1.2747549E2,-3.895557E-2,2.2803509E1,-2.5615725E-3,4.20119E1,6.708204E1,1.9416489E1,4.2154476E1,2.745906E1,1.791862E-2,4.04475E1,4.508409E-2,-5.188757E-2,1.2083046E1,-8.582156E-2,8E0,7.0747742E-3,7.255863E-2,-1.2120182E-1,2.546164E-2,2.7166155E1,-7.985449E-2,1.4569027E-2,-7.1023353E-3,2.0564156E0,5.390733E1,5.7245087E1,1.4281241E-2,-1.01048976E-1,-1.6187957E-2,1.12823576E-1,7.253275E1,4.554119E1,1.4866069E1,1.8376343E2,2.7018513E1,1.9051509E2,5.6089214E1,-6.2432617E-2,2.0803125E2,5.3E1,1.1509434E0,1.2517587E2,-2.8171966E-2,1.0591546E-1,-9.13011E-2,-1.4582735E-2,-8.32525E-2,3.9145954E-2,-1.229977E-1,3.0146712E-3,-3.8632963E-2,-1.2224978E-1,-3.2236464E-2,-1.2164881E-1,2.657066E1,7.485737E-2,8.508718E-3,1.1269375E-1,-3.3763926E-2,-1.17854774E-1,3.920459E1,3.956008E1,3.1780497E1,3.7336308E1,8.485281E0,9.0981536E-2,6.5398877E-3,1.0630146E1,1.1650924E-1,4.2836633E-2,1.0213369E-1,9.930333E-3,9.602604E1,6.315061E1,4.6647614E1,7.209022E1,2.4186773E1,2.8295884E-2,8.448077E1,1.720465E1,2.7018513E1,1.4603082E2,-1.238163E-1,9.193476E1,9.033371E-3,8.230136E-2,1.6918924E2,7.793326E-2,5.141984E1,1.478276E2,6.9541276E-2,7.864477E1,9.996249E-2,5.700877E1,8.3725746E1,1.3954211E2,7.870667E2,1.8982165E-2,-1.1719805E-2,-9.910194E-2,1.01889834E-1,1.1526896E-2,8.023672E-2,-5.5988982E-2,1.05020076E-1,4.072513E-2,-2.1545865E-2,8.131536E-2,7.65868E-2,-8.617833E-2,3.5126857E-2,1.13627076E-1,9.0556994E-2,-8.820735E-2,3.0680913E-2,1.1447035E-1,4.2729277E-2,-9.329841E-2,1.0690203E-1,4.103326E-2,-1.1258579E-1,-1.1046339E-2,-3.5221227E-2,1.1555147E-1,-8.147783E-2,-1.010845E-2,2.3188729E-2,-1.0798771E-1,9.265758E-2,-5.886863E-2,8.7535925E-2,-6.375523E-2,2.8168284E-3,-1.1666091E-1,3.913149E-2,1.2547994E-1,-1.5549973E-2,1.09213576E-1,-1.1005615E-1,4.3331902E-2,-9.4892986E-2,6.245642E-2,-6.8406127E-3,6.138726E-2,7.043226E-2,-6.497467E-2,-2.0536324E-2,-1.1830187E-1],"split_indices":[2262,2279,2278,1819,283,725,1079,1307,567,1003,1559,1579,0,